tree
version=v3
num_class=1
num_tree_per_iteration=1
label_index=0
max_feature_idx=5
objective=regression
feature_names=t-1 t-2 t-3 main_code year_list company_code
feature_infos=[2:21001500] [2:21001500] [2:21001500] [3:1347] [0:4] [1:27]
tree_sizes=2681 2712 2691 2707 2707 2707 2712 2709 2696 2699 2702 2712 2708 2707 2711 2697 2705 2704 2684 2708 2707 2710 2722 2720 2711 2706 2712 2703 2710 2717 2720 2707 2698 2705 2719 2713 2715 2713 2714 2720 2711 2714 2724 2705 2704 2707 2707 2709 2716 2715 2716 2717 2712 2719 2716 2709 2704 2700 2713 2698 2711 2704 2703 2702 2713 2716 2706 2714 2722 2720 2720 2711 2707 2711 2711 2726 2713 2720 2721 2719 2714 2716 2716 2725 2719 2720 2718 2733 2705 2724 2734 2741 2733 2742 2728 2728 2726 2731 2729 2725

Tree=0
num_leaves=31
num_cat=0
split_feature=2 0 0 0 0 0 4 0 0 2 2 0 0 2 3 2 3 0 5 2 5 0 3 0 0 3 3 3 2 3
split_gain=1.03555e+16 1.25365e+15 6.63321e+14 1.71018e+14 6.20342e+13 4.16665e+13 1.94756e+13 2.52457e+13 1.86353e+13 1.28827e+13 1.23804e+13 8.9464e+12 3.60017e+12 3.06328e+12 2.27301e+12 1.70501e+12 1.63378e+12 1.57208e+12 1.48035e+12 1.3469e+12 1.24302e+12 9.33635e+11 8.90814e+11 6.16385e+11 5.78619e+11 4.14672e+11 4.55808e+11 3.71375e+11 3.53982e+11 3.22833e+11
threshold=4227678.0000000009 8590060.0000000019 1017433.0000000001 234220.00000000003 5100615.0000000009 2538900.0000000005 1.8333333333333337 6501430.0000000009 520351.00000000006 78019.500000000015 6990048.0000000009 1373809.5000000002 795752.00000000012 393442.50000000006 1185.5000000000002 167971.50000000003 912.50000000000011 29563.000000000004 16.500000000000004 5888400.0000000009 15.500000000000002 606060.00000000012 168.00000000000003 331628.00000000006 1155039.5000000002 531.50000000000011 644.00000000000011 548.00000000000011 2015057.5000000002 908.50000000000011
decision_type=2 2 2 2 2 2 2 2 2 2 2 2 2 2 2 2 2 2 2 2 2 2 2 2 2 2 2 2 2 2
left_child=2 4 3 9 18 11 7 19 13 17 20 24 21 23 16 -11 25 -1 -2 -6 -8 -10 -12 -5 -4 -13 28 -14 -27 -25
right_child=1 -3 5 8 6 -7 10 -9 12 15 22 14 27 -15 -16 -17 -18 -19 -20 -21 -22 -23 -24 29 -26 26 -28 -29 -30 -31
leaf_value=359364.82481870765 598554.54215812008 1019103.5093099058 417042.76899740577 373950.64825506933 654532.87078907248 506205.04430097726 635629.22180990584 726323.71108263312 385773.28531982168 365156.62087036105 655531.87880990584 442673.67339323915 400134.19447515201 381645.94917454605 461454.87103816669 370382.84896791179 436783.30745121016 361769.65380581841 613690.66297657252 669824.5838099058 618905.57818490581 391627.26107936515 668904.89858263312 376003.25131578377 428031.63455718843 458041.18505990581 443976.50505990582 408768.79427865578 449331.80613133439 380171.96402056428
leaf_weight=4580 35 25 25 340 24 28 25 22 117 433 20 24 33 286 23 244 46 798 30 36 20 163 33 138 23 20 20 20 28 70
leaf_count=4580 35 25 25 340 24 28 25 22 117 433 20 24 33 286 23 244 46 798 30 36 20 163 33 138 23 20 20 20 28 70
internal_value=377714 681825 366619 363918 647408 448928 662527 680507 381444 360540 647483 441254 391443 377451 446903 367040 444477 359722 605540 663708 628196 389181 663858 375262 422308 448324 450318 403393 452961 377406
internal_weight=0 270 7459 7222 245 237 180 82 1167 6055 98 209 333 834 161 677 138 5378 65 60 45 280 53 548 48 92 68 53 48 208
internal_count=7729 270 7459 7222 245 237 180 82 1167 6055 98 209 333 834 161 677 138 5378 65 60 45 280 53 548 48 92 68 53 48 208
is_linear=0
shrinkage=1


Tree=1
num_leaves=31
num_cat=0
split_feature=1 1 0 0 0 0 1 0 0 4 1 0 1 0 1 3 3 1 5 5 3 1 1 1 0 0 5 3 4 0
split_gain=9.40191e+15 1.17579e+15 4.96386e+14 1.34467e+14 9.79475e+13 3.08788e+13 2.07365e+13 1.7414e+13 1.60133e+13 1.44171e+13 9.88381e+12 5.40067e+12 5.21045e+12 3.25349e+12 2.83545e+12 2.40219e+12 2.15618e+12 2.06385e+12 1.33042e+12 1.14384e+12 1.01756e+12 9.2139e+11 8.59615e+11 6.10842e+11 5.56158e+11 5.22203e+11 4.14358e+11 4.13812e+11 3.95117e+11 3.64044e+11
threshold=2859597.0000000005 8622900.0000000019 795752.00000000012 166079.50000000003 5100615.0000000009 1373809.5000000002 7485000.0000000009 4262700.0000000009 419576.00000000006 1.8333333333333337 6266344.5000000009 61955.000000000007 6659640.0000000009 1017433.0000000001 603945.00000000012 1185.5000000000002 644.00000000000011 242014.50000000003 16.500000000000004 12.500000000000002 365.50000000000006 2079090.0000000002 24500.000000000004 115418.00000000001 331628.00000000006 1155039.5000000002 12.500000000000002 580.00000000000011 1.5833333333333337 520351.00000000006
decision_type=2 2 2 2 2 2 2 2 2 2 2 2 2 2 2 2 2 2 2 2 2 2 2 2 2 2 2 2 2 2
left_child=2 4 3 11 7 13 9 -2 17 10 26 22 -11 -4 29 16 20 -5 -9 -14 -7 -22 -1 -13 -19 -15 -6 -26 -18 -10
right_child=1 -3 5 8 6 15 -8 18 14 12 -12 23 19 25 -16 -17 28 24 -20 -21 21 -23 -24 -25 27 -27 -28 -29 -30 -31
leaf_value=-17461.994068248092 164590.30625000002 617127.4302083333 24394.943278301886 -6979.3683418977744 263237.07000000001 61538.788920454543 313912.50299999997 211680.8499511719 4118.6965192522321 236963.14551282051 308706.29772727273 -13389.454455192448 271049.47500000003 37362.666437500004 13195.723876075974 79584.326654411765 62174.671582031253 -3090.2127544037976 226751.55925925929 254341.68571428573 80799.917129629641 67612.457692307697 -15598.934824843534 -10064.661855740018 -1728.8220823868462 47802.088315217392 272306.92683823529 2371.9904846741274 54433.795128676473 7551.719219760238
leaf_weight=4458 20 24 53 271 20 22 25 32 231 39 22 457 20 25 167 34 32 303 27 21 27 26 719 198 138 23 34 111 34 116
leaf_count=4458 20 24 53 271 20 22 25 32 231 39 22 457 20 25 167 34 32 303 27 21 27 26 719 198 138 23 34 111 34 116
internal_value=0 282272 -10850.1 -13383.3 251362 54949.4 271637 204910 918.53 264862 280457 -16662 250047 32935.1 7842.62 67654.7 64778.1 -3405.87 218578 262492 70578.3 74330.6 -17203.2 -12384.4 -1651.49 42364.9 268948 99.251 58186.9 5266.34
internal_weight=0 284 7445 7169 260 276 181 79 1337 156 76 5832 80 101 514 175 141 823 59 41 75 53 5177 655 552 48 54 249 66 347
internal_count=7729 284 7445 7169 260 276 181 79 1337 156 76 5832 80 101 514 175 141 823 59 41 75 53 5177 655 552 48 54 249 66 347
is_linear=0
shrinkage=0.05


Tree=2
num_leaves=31
num_cat=0
split_feature=2 0 0 0 0 0 4 0 0 2 2 0 0 0 5 3 5 2 3 2 5 0 0 0 0 3 3 3 3 2
split_gain=8.4384e+15 1.02621e+15 5.39284e+14 1.39386e+14 5.05537e+13 3.3634e+13 1.78413e+13 1.78431e+13 1.51794e+13 1.05142e+13 8.03052e+12 7.25315e+12 3.30765e+12 2.38675e+12 2.10983e+12 1.86549e+12 1.86334e+12 1.3943e+12 1.35306e+12 1.28293e+12 8.49024e+11 6.28882e+11 4.71288e+11 4.11143e+11 3.63063e+11 3.43183e+11 3.35166e+11 3.34918e+11 2.78103e+11 2.77315e+11
threshold=4227678.0000000009 8590060.0000000019 1017433.0000000001 234220.00000000003 5615016.5000000009 2538900.0000000005 1.8333333333333337 6501430.0000000009 566904.00000000012 78019.500000000015 6990048.0000000009 1373809.5000000002 395371.00000000006 795752.00000000012 13.500000000000002 1185.5000000000002 17.500000000000004 167971.50000000003 912.50000000000011 32771.000000000007 15.500000000000002 7400555.0000000009 1155039.5000000002 331628.00000000006 606060.00000000012 531.50000000000011 548.00000000000011 644.00000000000011 668.50000000000011 2015057.5000000002
decision_type=2 2 2 2 2 2 2 2 2 2 2 2 2 2 2 2 2 2 2 2 2 2 2 2 2 2 2 2 2 2
left_child=2 4 3 9 14 11 7 20 12 19 -8 22 23 24 -2 18 -16 -11 25 -1 -6 -12 -4 -5 -10 -13 -15 29 -25 -27
right_child=1 -3 5 8 6 -7 10 -9 13 17 21 15 -14 26 16 -17 -18 -19 -20 -21 -22 -23 -24 28 -26 27 -28 -29 -30 -31
leaf_value=-16551.351373776761 221134.83977272731 579676.87400000007 35494.532250000004 -3265.5729132349093 256772.52500000002 115661.0752232143 226488.77736486486 315264.75 8004.9982219114145 -11331.19339669384 252251.11853448275 58554.829036458337 4021.159705315406 20079.773887310606 194828.68046875001 75574.944021739138 214333.32000000004 -6605.0839467533297 53192.550271739135 -14327.08257082021 269828.09875 263461.72954545455 45411.982133152174 -1898.1882296827976 12582.385709835124 72271.163749999992 28282.642500000002 60073.209062499998 1939.5378478211242 64562.432142857149
leaf_weight=4624 33 25 25 346 33 28 37 22 59 433 29 24 347 33 24 23 25 244 46 754 20 22 23 122 163 20 20 20 77 28
leaf_count=4624 33 25 25 346 33 28 37 22 59 433 29 24 347 33 24 23 25 244 46 754 20 22 23 122 163 20 20 20 77 28
internal_value=0 274522 -10015.3 -12450.8 243384 64199.9 259493 277412 3371.66 -15500.3 244222 57305.6 205.403 13641.9 211362 62391.5 204780 -9627.84 60194.3 -16239.5 261699 257087 40246.6 -2224.08 11365.9 63695.1 23175.2 65509.3 -413.239 67774.4
internal_weight=0 270 7459 7222 245 237 163 75 1167 6055 88 209 892 275 82 161 49 677 138 5378 53 51 48 545 222 92 53 68 199 48
internal_count=7729 270 7459 7222 245 237 163 75 1167 6055 88 209 892 275 82 161 49 677 138 5378 53 51 48 545 222 92 53 68 199 48
is_linear=0
shrinkage=0.05


Tree=3
num_leaves=31
num_cat=0
split_feature=1 2 0 0 0 0 1 0 0 3 3 0 0 3 1 2 2 1 5 3 3 1 2 2 0 0 1 3 0 3
split_gain=7.66396e+15 9.63941e+14 4.02955e+14 1.09515e+14 8.21024e+13 2.48898e+13 2.09166e+13 1.36499e+13 1.30989e+13 4.77226e+12 1.04543e+13 4.42998e+12 2.64999e+12 2.41486e+12 2.32429e+12 2.27653e+12 2.00764e+12 1.71265e+12 1.24541e+12 8.05527e+11 7.81769e+11 7.03048e+11 6.25238e+11 5.41029e+11 4.89465e+11 4.25338e+11 3.70396e+11 3.24884e+11 3.02753e+11 3.02487e+11
threshold=2859597.0000000005 9217845.0000000019 795752.00000000012 166079.50000000003 5100615.0000000009 1373809.5000000002 7485000.0000000009 4262700.0000000009 419576.00000000006 635.00000000000011 435.50000000000006 61955.000000000007 1017433.0000000001 365.50000000000006 603945.00000000012 6172978.5000000009 2258200.0000000005 258835.00000000003 16.500000000000004 644.00000000000011 531.50000000000011 24500.000000000004 7294950.0000000009 117155.00000000001 6501430.0000000009 1155039.5000000002 360305.00000000006 499.50000000000006 520351.00000000006 548.00000000000011
decision_type=2 2 2 2 2 2 2 2 2 2 2 2 2 2 2 2 2 2 2 2 2 2 2 2 2 2 2 2 2 2
left_child=2 4 3 11 7 12 9 -2 17 10 13 21 29 22 28 -11 19 -5 -9 20 -7 -1 -6 -13 -15 -14 -19 -28 -10 -4
right_child=1 -3 5 8 6 16 -8 18 14 15 -12 23 25 24 -16 -17 -18 26 -20 -21 -22 -23 -24 -25 -26 -27 27 -29 -30 -31
leaf_value=-15761.526456650965 149243.93531249999 565158.42391304346 19075.784706439397 -5935.0869613694995 253795.48894230771 55627.090234375006 287501.48509615386 190368.89482421876 3711.7036237444199 242390.53599999999 200707.87875000003 -12074.933238674384 33719.806812499999 237112.52864583337 11937.45042805015 264721.44166666665 70425.34694940476 -2209.1462249696433 204950.14814814818 54567.388879870137 67564.842187500006 -14076.654023600488 242036.50062500002 -8898.32593188996 226521.53812500002 43141.384714673914 -1604.7625854718685 2834.6103910558363 6842.4226112628812 26868.51125
leaf_weight=4458 20 23 33 321 26 24 26 32 231 25 20 467 25 24 167 21 42 337 27 77 32 719 20 188 20 23 80 85 116 20
leaf_count=4458 20 23 33 321 26 24 26 32 231 25 20 467 25 24 167 21 42 337 27 77 32 719 20 188 20 23 80 85 116 20
internal_value=0 254851 -9796.04 -12078.4 227506 49488.4 245982 184941 828.418 239062 233406 -15037.4 29723.9 240673 7090.81 252585 60895.3 -3082.73 197042 57885.8 62448.7 -15527.5 248683 -11163.2 232298 38234.3 -1258.81 682.187 4758.28 22016.4
internal_weight=0 284 7445 7169 261 276 182 79 1337 156 110 5832 101 90 514 46 175 823 59 133 56 5177 46 655 44 48 502 165 347 53
internal_count=7729 284 7445 7169 261 276 182 79 1337 156 110 5832 101 90 514 46 175 823 59 133 56 5177 46 655 44 48 502 165 347 53
is_linear=0
shrinkage=0.05


Tree=4
num_leaves=31
num_cat=0
split_feature=1 0 0 0 0 0 4 1 0 0 3 1 0 0 1 3 3 1 5 4 1 1 4 1 0 5 3 4 1 3
split_gain=6.91672e+15 8.75393e+14 3.63667e+14 9.88371e+13 6.96605e+13 2.24631e+13 1.47609e+13 1.83361e+13 1.2319e+13 1.18218e+13 6.92223e+12 7.28843e+12 3.99805e+12 2.39161e+12 2.09767e+12 1.70915e+12 1.58552e+12 1.56159e+12 1.12398e+12 7.3408e+11 6.345e+11 4.75185e+11 4.41097e+11 4.08844e+11 3.83867e+11 3.76679e+11 3.75822e+11 3.2383e+11 2.80501e+11 2.72995e+11
threshold=2859597.0000000005 8590060.0000000019 795752.00000000012 166079.50000000003 5100615.0000000009 1373809.5000000002 1.8333333333333337 6266344.5000000009 4262700.0000000009 419576.00000000006 536.50000000000011 7154550.0000000009 61955.000000000007 1017433.0000000001 603945.00000000012 1185.5000000000002 912.50000000000011 242014.50000000003 16.500000000000004 1.5833333333333337 24500.000000000004 104136.50000000001 2.166666666666667 335917.50000000006 1155039.5000000002 12.500000000000002 499.50000000000006 1.8333333333333337 481850.00000000006 548.00000000000011
decision_type=2 2 2 2 2 2 2 2 2 2 2 2 2 2 2 2 2 2 2 2 2 2 2 2 2 2 2 2 2 2
left_child=2 4 3 12 8 13 7 25 -2 17 11 -8 20 29 27 16 19 -5 -10 -7 -1 -14 -21 -19 -15 -6 -25 28 -11 -4
right_child=1 -3 5 9 6 15 10 -9 18 14 -12 -13 21 24 -16 -17 -18 23 -20 22 -22 -23 -24 26 -26 -27 -28 -29 -30 -31
leaf_value=-14973.449896429174 141781.74187500001 524656.37199999997 18121.995691287881 -6037.0028920360164 225196.67500000002 64267.397499999999 196267.7759375 280501.76428571431 180850.44296875002 4196.3034189496721 238001.00820312501 230272.72836538462 -11687.211575762112 32033.816187500001 11340.578064184134 67913.169117647063 47804.554279891308 -2645.1456957034497 194702.6425925926 51425.443649193548 -13372.821318671766 -8929.0858751823944 60454.284114583337 -1677.2904240294965 40984.315964673915 233844.32205882354 2208.5548774585391 2759.5985320430477 7993.0484568041429 25525.085546875001
leaf_weight=4458 20 25 33 271 20 40 40 28 32 112 32 26 398 25 167 34 46 301 27 31 719 257 24 137 23 34 114 149 86 20
leaf_count=4458 20 25 33 271 20 40 40 28 32 112 32 26 398 25 167 34 46 301 27 31 719 257 24 137 23 34 114 149 86 20
internal_value=0 242108 -9306.23 -11474.5 214835 47014 232014 247667 175694 786.997 218917 209664 -14285.5 28237.7 6736.27 57850.5 55424.1 -2928.59 187190 59113.6 -14751.1 -10605 55365.3 -1402.54 36322.6 230641 87.5955 4520.37 5845.39 20915.6
internal_weight=0 284 7445 7169 259 276 180 82 79 1337 98 66 5832 101 514 175 141 823 59 95 5177 655 55 552 48 54 251 347 198 53
internal_count=7729 284 7445 7169 259 276 180 82 79 1337 98 66 5832 101 514 175 141 823 59 95 5177 655 55 552 48 54 251 347 198 53
is_linear=0
shrinkage=0.05


Tree=5
num_leaves=31
num_cat=0
split_feature=1 2 2 2 2 1 1 2 2 4 1 4 2 1 2 3 3 3 3 1 1 3 5 2 5 1 3 2 2 4
split_gain=6.53e+15 9.46208e+14 3.32621e+14 1.01269e+14 3.90081e+13 1.42647e+13 8.11103e+12 7.81831e+12 6.64761e+12 5.69839e+12 5.98452e+12 5.02011e+12 4.29462e+12 3.89223e+12 3.53058e+12 2.59155e+12 5.42226e+12 1.99834e+12 1.84061e+12 1.25505e+12 1.16863e+12 8.4177e+11 8.28499e+11 5.23103e+11 5.08254e+11 4.64359e+11 4.13389e+11 3.7046e+11 2.59379e+11 1.90099e+11
threshold=2859597.0000000005 9217845.0000000019 1010743.0000000001 167971.50000000003 5179850.0000000009 421050.00000000006 4585041.0000000009 5888400.0000000009 1373809.5000000002 1.5833333333333337 7485000.0000000009 1.5833333333333337 6172978.5000000009 60160.000000000007 599987.50000000012 168.00000000000003 411.00000000000006 1185.5000000000002 644.00000000000011 335917.50000000006 784920.00000000012 548.00000000000011 17.500000000000004 24500.000000000004 13.500000000000002 115418.00000000001 580.00000000000011 264774.50000000006 562126.50000000012 1.8333333333333337
decision_type=2 2 2 2 2 2 2 2 2 2 2 2 2 2 2 2 2 2 2 2 2 2 2 2 2 2 2 2 2 2
left_child=2 4 3 13 6 19 -2 11 21 12 15 -6 -9 23 28 -11 -17 18 22 27 29 -4 -10 -1 -22 -15 -21 -5 -7 -16
right_child=1 -3 8 5 7 14 -8 9 17 10 -12 -13 -14 25 20 16 -18 -19 -20 26 24 -23 -24 -25 -26 -27 -28 -29 -30 -31
leaf_value=-14216.210032344916 148606.69947916668 516776.93796296301 41038.771124999999 -5054.5825179515168 214527.69010416666 3450.8908477783207 185550.40128205129 220525.17554347828 62186.995121951215 222820.30652173911 237830.44293478262 181461.15000000002 250185.7658653846 -10856.340775851118 11507.775374177632 184384.45652173914 216425.90564516131 65048.094270833339 46214.165125868058 -1579.5570584707887 13440.778687959561 28415.972377232145 51451.78369140625 -12724.90744232808 22220.240747070315 -8009.1367226780058 2525.8234889331166 -2504.2536001867179 7512.709882918648 8301.0436545138891
leaf_weight=4431 24 27 25 340 24 270 39 23 41 23 23 22 26 492 95 23 31 36 72 137 34 28 32 678 32 202 111 245 46 90
leaf_count=4431 24 27 25 340 24 270 39 23 41 23 23 22 26 492 95 23 31 36 72 137 34 28 32 678 32 202 111 245 46 90
internal_value=0 235153 -8723.17 -10629.1 205681 1441.11 171477 216732 49944 222295 215450 198713 236263 -13541 7558.54 208765 202779 54504.3 51886.5 -2722.85 11985.5 34370.1 57481.1 -14018.3 17697.5 -10027.6 257.932 -3986.5 4042.17 9947.74
internal_weight=0 285 7437 7203 258 1400 63 195 234 149 100 46 49 5803 567 77 54 181 145 833 251 53 73 5109 66 694 248 585 316 185
internal_count=7722 285 7437 7203 258 1400 63 195 234 149 100 46 49 5803 567 77 54 181 145 833 251 53 73 5109 66 694 248 585 316 185
is_linear=0
shrinkage=0.05


Tree=6
num_leaves=31
num_cat=0
split_feature=1 0 0 0 0 0 2 1 1 2 0 3 3 3 2 3 3 3 0 2 0 0 3 3 5 2 3 2 0 0
split_gain=5.89333e+15 8.61383e+14 3.03608e+14 7.97638e+13 4.20849e+13 2.00492e+13 7.47448e+12 6.97149e+12 6.33752e+12 4.82249e+12 2.59402e+12 2.52779e+12 5.59991e+12 4.16431e+12 1.7168e+12 1.70116e+12 1.27238e+12 1.55628e+12 9.75263e+11 9.55248e+11 8.14424e+11 6.27441e+11 4.97663e+11 4.60914e+11 3.14305e+11 2.85159e+11 2.81978e+11 2.23041e+11 1.94052e+11 1.40517e+11
threshold=2859597.0000000005 8590060.0000000019 795752.00000000012 234220.00000000003 5100615.0000000009 1155039.5000000002 78019.500000000015 4585041.0000000009 421050.00000000006 5888400.0000000009 1527255.0000000002 411.00000000000006 956.50000000000011 168.00000000000003 562126.50000000012 452.50000000000006 1185.5000000000002 644.00000000000011 1017433.0000000001 152923.50000000003 30921.500000000004 358476.00000000006 1048.5000000000002 533.50000000000011 17.500000000000004 740975.00000000012 580.00000000000011 846202.50000000012 1373809.5000000002 9741.0000000000018
decision_type=2 2 2 2 2 2 2 2 2 2 2 2 2 2 2 2 2 2 2 2 2 2 2 2 2 2 2 2 2 2
left_child=2 4 3 6 7 18 20 -2 21 23 28 13 -13 -11 -10 -9 17 24 27 -8 29 -5 -14 -6 -12 -16 -23 -4 -7 -1
right_child=1 -3 5 8 9 10 19 15 14 11 16 12 22 -15 25 -17 -18 -19 -20 -21 -22 26 -24 -25 -26 -27 -28 -29 -30 -31
leaf_value=-13743.164726141602 141106.73990384614 486745.79732142854 20350.363454861115 -2531.4360291522485 197768.85760869566 37411.822249999997 -9268.7126806526558 183594.58977272728 3416.5542246653622 215719.421969697 58625.396729651169 231369.82993421052 199849.38693181821 189241.85324074075 8297.7805687511045 163931.74659090908 61795.690711805553 44475.624754901961 29516.370883413463 -5528.579911653761 -11696.083676816959 -966.48772412109383 210484.48522727273 187645.82272727275 51483.009765625 12364.060334429825 2817.2808783147757 14046.992306385871 43581.435997596156 -13188.531538284135
leaf_weight=2413 26 28 36 414 23 25 428 22 266 33 43 38 22 27 177 22 36 51 26 284 743 100 22 22 24 57 97 23 26 2168
leaf_count=2413 26 28 36 414 23 25 428 22 266 33 43 38 22 27 177 22 36 51 26 284 743 100 22 22 24 57 97 23 26 2168
internal_value=0 223396 -8287.01 -10322 194704 41865.2 -12588.2 161634 1989.99 207083 50330.7 211603 217310 203805 6164.52 173763 53567.4 51057.1 21448.5 -7776.86 -13231.6 -1426.17 205167 192820 56066.9 9288.28 896.586 17893.1 40557.1 -13480.7
internal_weight=0 285 7437 7147 257 290 6036 70 1111 187 205 142 82 60 500 44 154 118 85 712 5324 611 44 45 67 234 197 59 51 4581
internal_count=7722 285 7437 7147 257 290 6036 70 1111 187 205 142 82 60 500 44 154 118 85 712 5324 611 44 45 67 234 197 59 51 4581
is_linear=0
shrinkage=0.05


Tree=7
num_leaves=31
num_cat=0
split_feature=2 0 0 0 0 0 4 2 2 2 0 0 0 0 3 0 2 3 4 2 2 3 0 2 4 4 0 2 0 4
split_gain=5.31183e+15 7.5681e+14 3.10829e+14 8.36889e+13 2.56365e+13 1.44126e+13 1.29479e+13 9.10809e+12 7.30809e+12 6.7569e+12 5.00904e+12 4.24537e+12 3.03333e+12 1.94795e+12 1.48226e+12 1.33791e+12 1.2168e+12 1.07008e+12 8.85367e+11 8.64217e+11 7.30693e+11 3.65933e+11 2.86817e+11 2.40711e+11 4.30008e+11 2.68624e+11 2.15641e+11 2.08454e+11 1.59733e+11 1.59553e+11
threshold=4227678.0000000009 8590060.0000000019 1017433.0000000001 234220.00000000003 5615016.5000000009 2538900.0000000005 1.8333333333333337 562126.50000000012 6990048.0000000009 86135.500000000015 6019884.0000000009 1373809.5000000002 4685850.0000000009 373835.00000000006 1185.5000000000002 795752.00000000012 5179850.0000000009 644.00000000000011 2.416666666666667 32771.000000000007 152923.50000000003 531.50000000000011 1155039.5000000002 740975.00000000012 1.8333333333333337 2.416666666666667 419576.00000000006 846202.50000000012 331628.00000000006 1.8333333333333337
decision_type=2 2 2 2 2 2 2 2 2 2 2 2 2 2 2 2 2 2 2 2 2 2 2 2 2 2 2 2 2 2
left_child=2 4 3 9 12 11 10 13 -8 19 -6 22 -2 28 17 23 -14 21 -10 -1 -11 -13 -4 24 -9 -26 -15 -17 -5 -28
right_child=1 -3 5 7 6 -7 8 15 18 20 -12 14 16 26 -16 27 -18 -19 -20 -21 -22 -23 -24 -25 25 -27 29 -29 -30 -31
leaf_value=-12802.979076856594 154182.86515151517 462408.53080357146 28040.552253605769 -2663.0884681252874 203277.52000000002 87715.072172619053 168726.24558823532 9759.9335303673379 191322.34218750001 -8623.9868045621315 229380.71250000002 45229.363383152173 165475.22450000001 831.26017609135852 58684.627232142855 19472.258772321431 180651.62812500002 41703.141562500008 204305.04181034485 -11004.101458091591 -5252.1509167684635 52899.720377604164 35541.231593750003 11374.69765625 2207.9311211164609 8205.2567057291672 4441.5531947489808 13344.642612092393 -619.31345623274501 2059.445896160792
leaf_weight=4601 33 28 26 340 40 21 34 104 24 370 34 23 25 116 28 35 28 70 29 781 284 48 25 58 43 33 159 23 133 126
leaf_count=4601 33 28 26 340 40 21 34 104 24 370 34 23 25 116 28 35 28 70 29 781 284 48 25 58 43 33 159 23 133 126
internal_value=0 216051 -7718.34 -9586.45 188123 48138.8 199896 2652.34 186819 -11958.8 215271 44361.1 166083 85.0167 48176.6 10232.9 173493 46089.9 198426 -12541.9 -7159.76 50415 31717.4 8573.45 7670.82 4812.03 2648.69 17042.3 -2088.41 3388.41
internal_weight=0 275 7447 7206 247 241 161 1170 87 6036 74 220 86 874 169 296 53 141 53 5382 654 71 51 238 180 76 401 58 473 285
internal_count=7722 275 7447 7206 247 241 161 1170 87 6036 74 220 86 874 169 296 53 141 53 5382 654 71 51 238 180 76 401 58 473 285
is_linear=0
shrinkage=0.05


Tree=8
num_leaves=31
num_cat=0
split_feature=1 2 0 2 0 0 0 1 2 0 3 3 3 0 2 3 3 3 0 2 3 0 0 3 5 0 2 5 1 0
split_gain=4.80273e+15 7.02822e+14 2.4675e+14 6.50161e+13 3.51741e+13 1.62286e+13 7.81974e+12 5.63684e+12 4.4038e+12 2.93015e+12 2.64932e+12 6.01817e+12 3.56364e+12 2.09207e+12 1.57266e+12 1.51558e+12 9.72681e+11 1.24784e+12 7.93073e+11 7.68488e+11 4.64297e+11 4.58225e+11 4.40861e+11 4.14753e+11 2.69266e+11 2.64483e+11 2.184e+11 2.03835e+11 1.9272e+11 1.54528e+11
threshold=2859597.0000000005 9217845.0000000019 795752.00000000012 167971.50000000003 5100615.0000000009 1155039.5000000002 395371.00000000006 4585041.0000000009 5888400.0000000009 64557.500000000007 411.00000000000006 956.50000000000011 168.00000000000003 1527255.0000000002 562126.50000000012 452.50000000000006 1185.5000000000002 644.00000000000011 1017433.0000000001 264774.50000000006 1048.5000000000002 19188.500000000004 276237.00000000006 533.50000000000011 17.500000000000004 92120.000000000015 740975.00000000012 13.500000000000002 360305.00000000006 1373809.5000000002
decision_type=2 2 2 2 2 2 2 2 2 2 2 2 2 2 2 2 2 2 2 2 2 2 2 2 2 2 2 2 2 2
left_child=2 4 3 9 7 18 19 -2 23 21 12 -12 -10 29 -8 -9 17 24 27 -5 -13 -1 25 -6 -15 -11 -16 -4 -21 -7
right_child=1 -3 5 6 8 13 14 15 10 22 11 20 -14 16 26 -17 -18 -19 -20 28 -22 -23 -24 -25 -26 -27 -28 -29 -30 -31
leaf_value=-12225.59511980268 127555.33798076923 444384.82870370377 13457.481994628906 -4503.9613026875941 178586.70271739131 33764.169125 2839.7495969794782 166199.61931818182 194844.15984848485 -9821.3820132424644 211913.54391025641 179801.02954545454 170350.48796296297 52914.071366279073 7298.8474107300499 147640.23068181818 55449.11319444445 40166.687040441175 26638.524489182695 -1968.2204096524679 190073.41875000001 -10982.702043060099 -1484.9916193181818 168983.94573863636 46303.200911458334 -7755.7533949031395 10857.4560546875 19356.478616898148 379.40200969601466 39269.739302884613
leaf_weight=4257 26 27 32 334 23 25 340 22 33 282 39 22 27 43 177 22 36 51 26 315 22 898 22 22 24 344 57 27 121 26
leaf_count=4257 26 27 32 334 23 25 340 22 33 282 39 22 27 43 177 22 36 51 26 315 22 898 22 22 24 344 57 27 121 26
internal_value=0 201669 -7481.11 -9315.69 176268 37731.8 593.661 146013 187534 -11610.7 191826 197613 183822 45348.1 5010.95 156920 48254.9 46060 19363.1 -2699.23 184937 -12009.1 -8441.79 173892 50546 -8686.28 8165.69 16157 -1316.7 36570.9
internal_weight=0 285 7437 7147 258 290 1344 70 188 5803 143 83 60 205 574 44 154 118 85 770 44 5155 648 45 67 626 234 59 436 51
internal_count=7722 285 7437 7147 258 290 1344 70 188 5803 143 83 60 205 574 44 154 118 85 770 44 5155 648 45 67 626 234 59 436 51
is_linear=0
shrinkage=0.05


Tree=9
num_leaves=31
num_cat=0
split_feature=1 0 0 0 0 0 4 2 0 2 1 1 0 3 2 4 4 2 0 2 4 0 0 0 2 3 2 4 4 2
split_gain=4.33447e+15 6.36138e+14 2.22692e+14 5.8742e+13 3.06372e+13 1.46463e+13 8.91473e+12 7.84474e+12 7.74865e+12 5.47516e+12 5.08725e+12 4.71033e+12 1.88809e+12 1.36781e+12 1.25939e+12 9.69456e+11 9.20844e+11 1.70692e+12 7.15749e+11 6.84935e+11 6.34025e+11 6.14612e+11 5.98983e+11 4.4752e+11 3.30827e+11 2.99336e+11 2.12186e+11 3.18404e+11 1.86272e+11 1.79175e+11
threshold=2859597.0000000005 8590060.0000000019 795752.00000000012 234220.00000000003 5100615.0000000009 1155039.5000000002 1.8333333333333337 6990048.0000000009 6019884.0000000009 78019.500000000015 4585041.0000000009 421050.00000000006 1527255.0000000002 452.50000000000006 562126.50000000012 2.416666666666667 1.5833333333333337 1799226.0000000002 1017433.0000000001 152923.50000000003 2.166666666666667 19188.500000000004 5806593.0000000009 331628.00000000006 6172978.5000000009 580.00000000000011 740975.00000000012 1.8333333333333337 2.416666666666667 846202.50000000012
decision_type=2 2 2 2 2 2 2 2 2 2 2 2 2 2 2 2 2 2 2 2 2 2 2 2 2 2 2 2 2 2
left_child=2 4 3 9 10 18 8 24 22 21 -2 23 -7 -12 -13 -9 17 -14 29 -11 -18 -1 -6 -5 -8 -25 27 -16 -29 -4
right_child=1 -3 5 11 6 12 7 15 -10 19 13 14 16 -15 26 -17 20 -19 -20 -21 -22 -23 -24 25 -26 -27 -28 28 -30 -31
leaf_value=-11614.31499093405 121177.56947115385 417899.10401785717 17551.56640625 -2449.4332427163595 173096.44204545455 34742.384015012256 147319.45108695651 172242.71458333335 207768.34595588237 -7940.0447769735465 157889.63693181821 2961.1782506498184 44813.649444444447 140258.21903409093 8933.3261225728165 185628.03951612907 38529.844049202125 62077.287425595248 25306.598828125003 -4773.0047459132238 47037.768788109759 -10272.306243044166 183898.52380952382 -1165.8886259812575 155999.52202380952 2171.6111059156515 10643.440923108552 2383.3185976590325 7430.051313920455 11901.945253057065
leaf_weight=4257 26 28 36 337 33 51 23 24 34 428 22 266 45 22 103 31 47 21 26 284 41 1067 21 156 21 118 57 41 33 23
leaf_count=4257 26 28 36 337 33 51 23 24 34 428 22 266 45 22 103 31 47 21 26 284 41 1067 21 156 21 118 57 41 33 23
internal_value=0 191585 -7107.05 -8849.9 166929 35845.3 177491 167198 189070 -10794.7 138712 1715.84 43080.7 149074 5314.78 179787 45842.1 50306.6 18395 -6676.79 42493.8 -11345.4 177297 -1229.28 151462 271.429 7990.24 7135.82 4633.89 15349.2
internal_weight=0 285 7437 7147 257 290 187 99 88 6036 70 1111 205 44 500 55 154 66 85 712 88 5324 54 611 44 274 234 177 74 59
internal_count=7722 285 7437 7147 257 290 187 99 88 6036 70 1111 205 44 500 55 154 66 85 712 88 5324 54 611 44 274 234 177 74 59
is_linear=0
shrinkage=0.05


Tree=10
num_leaves=31
num_cat=0
split_feature=2 2 1 0 0 2 1 2 4 2 2 2 2 0 0 1 4 3 2 3 3 2 4 0 3 2 3 4 4 0
split_gain=3.94341e+15 5.32679e+14 2.2865e+14 5.92585e+13 3.01273e+13 9.72526e+12 7.39951e+12 6.50579e+12 6.38161e+12 4.70038e+12 3.81353e+12 3.37125e+12 2.41024e+12 1.58599e+12 1.08001e+12 1.07504e+12 1.07187e+12 7.25359e+11 6.65275e+11 6.09038e+11 5.80569e+11 4.33194e+11 3.96553e+11 3.69896e+11 2.5051e+11 2.22359e+11 2.22185e+11 1.91615e+11 3.16988e+11 1.60093e+11
threshold=4227678.0000000009 9217845.0000000019 947115.00000000012 234220.00000000003 5615016.5000000009 7725500.0000000009 1455421.5000000002 510065.00000000006 1.8333333333333337 86135.500000000015 2579983.5000000005 6172978.5000000009 6990048.0000000009 5100615.0000000009 606060.00000000012 360305.00000000006 1.8333333333333337 1185.5000000000002 32771.000000000007 912.50000000000011 533.50000000000011 167971.50000000003 1.8333333333333337 795752.00000000012 580.00000000000011 432373.00000000006 787.50000000000011 1.5833333333333337 2.166666666666667 4685850.0000000009
decision_type=2 2 2 2 2 2 2 2 2 2 2 2 2 2 2 2 2 2 2 2 2 2 2 2 2 2 2 2 2 2
left_child=2 4 3 9 13 8 22 15 11 18 17 20 -10 16 -9 -5 29 19 -1 27 -6 -11 -4 -16 25 -17 -26 -8 -29 -2
right_child=1 -3 6 7 5 -7 10 14 12 21 -12 -13 -14 -15 23 24 -18 -19 -20 -21 -22 -23 -24 -25 26 -27 -28 28 -30 -31
leaf_value=-10986.585407342071 136628.0965625 393078.3125 29953.306315104172 -2062.9117727549651 179294.18423913047 206818.57840909093 46440.962594696975 4396.7531249792401 150922.98033088236 -7293.5071471379406 63548.727103365389 197592.36793478264 169486.41493055556 149836.85865384617 8905.5598092830896 -1283.0425362998562 125938.57976190477 50048.260825892859 -9418.8930959990521 35773.034670608111 167646.15937500002 -4642.3141469120983 22465.964676339288 14049.14394975142 6442.9569709329044 3536.0162757873536 2031.8680886857965 37685.905228365387 45571.232625000004 142878.72380952383
leaf_weight=4650 20 28 48 438 23 22 33 147 34 387 26 23 36 26 170 95 21 28 792 37 20 256 28 44 34 32 178 26 25 21
leaf_count=4650 20 28 48 438 23 22 33 147 34 387 26 23 36 26 170 95 21 28 792 37 20 256 28 44 34 32 178 26 25 21
internal_value=0 186438 -6691.98 -8322.24 162917 175976 40221.9 2150.15 170987 -10280.8 45879.4 182141 160470 139471 7696.48 -426.717 135125 42796.1 -10758.4 41117.9 173876 -6237.98 27194.8 9963.12 1687.31 -68.7915 2739.31 43472.2 41551.3 139830
internal_weight=0 274 7474 7223 246 158 251 1138 136 6085 175 66 70 88 361 777 62 149 5442 121 43 643 76 214 339 127 212 84 51 41
internal_count=7748 274 7474 7223 246 158 251 1138 136 6085 175 66 70 88 361 777 62 149 5442 121 43 643 76 214 339 127 212 84 51 41
is_linear=0
shrinkage=0.05


Tree=11
num_leaves=31
num_cat=0
split_feature=2 2 0 0 0 0 2 4 2 2 2 5 2 2 4 0 0 3 3 0 3 0 2 3 3 0 5 2 3 2
split_gain=3.55892e+15 4.80743e+14 2.04237e+14 4.82706e+13 2.71899e+13 1.38192e+13 8.77704e+12 5.7594e+12 4.47283e+12 4.24209e+12 3.82404e+12 3.34373e+12 3.04255e+12 2.17524e+12 1.27488e+12 1.13395e+12 1.10699e+12 8.24664e+11 7.25512e+11 6.02834e+11 5.23964e+11 4.04518e+11 3.90958e+11 2.8634e+11 2.73758e+11 2.58861e+11 2.43617e+11 1.95267e+11 2.09693e+11 1.89104e+11
threshold=4227678.0000000009 9217845.0000000019 795752.00000000012 234220.00000000003 5615016.5000000009 1373809.5000000002 7725500.0000000009 1.8333333333333337 432373.00000000006 86135.500000000015 2579983.5000000005 13.500000000000002 6172978.5000000009 6990048.0000000009 1.8333333333333337 1017433.0000000001 606060.00000000012 1185.5000000000002 912.50000000000011 30921.500000000004 533.50000000000011 358476.00000000006 167971.50000000003 531.50000000000011 580.00000000000011 1875754.0000000002 13.500000000000002 624609.50000000012 908.50000000000011 740975.00000000012
decision_type=2 2 2 2 2 2 2 2 2 2 2 2 2 2 2 2 2 2 2 2 2 2 2 2 2 2 2 2 2 2
left_child=2 4 3 9 11 15 7 12 21 19 17 -2 20 -9 -13 26 27 18 23 -1 -6 -5 -11 -7 -23 -25 -4 28 -10 -18
right_child=1 -3 5 8 6 10 -8 13 16 22 -12 14 -14 -15 -16 -17 29 -19 -20 -21 -22 24 -24 25 -26 -27 -28 -29 -30 -31
leaf_value=-10442.803354866488 143422.54775641026 373424.4084821429 10707.370719401042 -2113.4242321890943 170329.47826086957 35406.578671875002 196477.65113636365 143376.83198529412 4327.5070663938095 -6928.8320258246531 60371.290264423078 130787.18325892858 187712.74945652173 161012.09409722223 114489.95089285714 24810.481546585652 7285.0952123609641 47545.847712053575 32929.774548611109 -8974.6971086002086 159263.85125000001 -1072.3906810760498 -4410.1983496904377 45073.766976351355 2594.558304806973 39030.220220588235 17759.924171875002 8089.2190197172622 1618.1071957770196 10813.348570033482
leaf_weight=4618 39 28 24 408 23 20 22 34 157 387 26 28 23 36 21 54 118 28 45 824 20 111 256 37 94 34 25 21 131 56
leaf_count=4618 39 28 24 408 23 20 22 34 157 387 26 28 23 36 21 54 118 28 45 824 20 111 256 37 94 34 25 21 131 56
internal_value=0 177116 -6357.38 -8026.94 154772 34561.1 167177 162437 1632.33 -9766.72 42556.1 132498 173034 152446 123803 19813 5230.75 39731.8 38123 -10220.5 165183 -1202.98 -5926.08 40691.1 609.04 42179.7 14305.6 3434.51 3095.11 8420.63
internal_weight=0 274 7474 7181 246 293 158 136 1096 6085 190 88 66 70 49 103 483 164 136 5442 43 613 643 91 205 71 49 309 288 174
internal_count=7748 274 7474 7181 246 293 158 136 1096 6085 190 88 66 70 49 103 483 164 136 5442 43 613 643 91 205 71 49 309 288 174
is_linear=0
shrinkage=0.05


Tree=12
num_leaves=31
num_cat=0
split_feature=2 2 1 0 0 2 1 2 4 2 2 5 2 2 4 0 0 2 1 4 4 4 0 5 5 0 4 2 5 1
split_gain=3.21193e+15 4.3387e+14 1.86408e+14 4.82296e+13 2.45389e+13 7.92128e+12 6.04262e+12 5.2924e+12 5.19786e+12 3.82849e+12 3.09601e+12 3.01772e+12 2.7459e+12 1.96315e+12 1.15058e+12 8.80326e+11 8.74398e+11 5.45235e+11 3.55185e+11 3.52801e+11 3.10474e+11 4.15573e+11 2.91099e+11 4.26859e+11 2.40851e+11 2.21187e+11 1.43667e+11 1.35263e+11 1.32941e+11 1.2062e+11
threshold=4227678.0000000009 9217845.0000000019 947115.00000000012 234220.00000000003 5615016.5000000009 7725500.0000000009 1455421.5000000002 510065.00000000006 1.8333333333333337 86135.500000000015 2579983.5000000005 13.500000000000002 6172978.5000000009 6990048.0000000009 1.8333333333333337 358476.00000000006 606060.00000000012 32771.000000000007 168615.50000000003 1.8333333333333337 1.8333333333333337 2.166666666666667 795752.00000000012 13.500000000000002 16.500000000000004 1726569.0000000002 1.8333333333333337 624609.50000000012 16.500000000000004 713075.00000000012
decision_type=2 2 2 2 2 2 2 2 2 2 2 2 2 2 2 2 2 2 2 2 2 2 2 2 2 2 2 2 2 2
left_child=2 4 3 9 11 8 19 15 12 17 20 -2 -6 -10 -13 -5 27 -1 -11 24 25 -22 28 -24 -4 -8 -17 -9 29 -18
right_child=1 -3 6 7 5 -7 10 16 13 18 -12 14 -14 -15 -16 26 22 -19 -20 -21 21 -23 23 -25 -26 -27 -28 -29 -30 -31
leaf_value=-9916.0314719002017 136251.41907051284 354753.17589285714 30999.645880681819 -1951.677343384082 156923.54098837211 186653.76732954546 38565.741443452382 3350.4207038031691 136207.98952205884 -6548.7422157039027 57352.725751201928 124247.82477678571 178327.11304347828 152961.48940972224 108765.45267857144 2248.4192186016903 5591.0593086242679 -8496.8038171016815 -4127.0373860968921 20087.071079799109 32714.350822368422 40158.781545608108 7208.1348742675782 17098.632421875001 23891.327328725965 44083.544531250001 214.10939982688592 7684.7580729166675 9862.1940638950909 9015.1696947674409
leaf_weight=4650 39 28 22 417 43 22 42 126 34 399 26 28 23 36 21 214 64 792 244 28 38 37 20 24 26 32 146 21 63 43
leaf_count=4650 39 28 22 417 43 22 42 126 34 399 26 28 23 36 21 214 64 792 244 28 38 37 20 24 26 32 146 21 63 43
internal_value=0 168260 -6039.51 -7511.49 147033 158818 36319.6 1936.23 154316 -9278.38 41432.1 125873 164382 144824 117613 -387.938 6938.67 -9709.48 -5629.77 24547.4 38654.1 36386.9 8978.17 12603 27149.3 40951.8 1423.39 3969.61 8039.99 6967.1
internal_weight=0 274 7474 7223 246 158 251 1138 136 6085 175 88 66 70 49 777 361 5442 643 76 149 75 214 44 48 74 360 147 170 107
internal_count=7748 274 7474 7223 246 158 251 1138 136 6085 175 88 66 70 49 777 361 5442 643 76 149 75 214 44 48 74 360 147 170 107
is_linear=0
shrinkage=0.05


Tree=13
num_leaves=31
num_cat=0
split_feature=2 0 1 0 0 1 2 3 2 2 2 5 5 5 1 1 0 3 3 0 3 1 5 0 5 2 3 3 2 1
split_gain=2.89877e+15 3.93262e+14 1.68233e+14 4.35273e+13 2.04307e+13 5.45347e+12 4.77639e+12 4.64098e+12 5.00299e+12 3.45521e+12 2.79415e+12 2.72349e+12 2.2716e+12 2.66196e+12 1.87267e+12 8.08829e+11 7.89144e+11 5.74336e+11 5.08565e+11 4.95344e+11 4.86364e+11 3.20554e+11 3.19444e+11 2.62717e+11 3.85241e+11 2.2692e+11 2.03217e+11 1.92131e+11 1.71897e+11 1.71764e+11
threshold=4227678.0000000009 8590060.0000000019 947115.00000000012 234220.00000000003 5615016.5000000009 1455421.5000000002 510065.00000000006 635.00000000000011 6172978.5000000009 86135.500000000015 2579983.5000000005 13.500000000000002 21.500000000000004 6.5000000000000009 7154550.0000000009 360305.00000000006 606060.00000000012 1185.5000000000002 533.50000000000011 29563.000000000004 912.50000000000011 168615.50000000003 12.500000000000002 795752.00000000012 13.500000000000002 1137935.0000000002 580.00000000000011 787.50000000000011 432373.00000000006 1704500.0000000002
decision_type=2 2 2 2 2 2 2 2 2 2 2 2 2 2 2 2 2 2 2 2 2 2 2 2 2 2 2 2 2 2
left_child=2 4 3 9 11 22 15 12 -9 19 17 -2 13 -6 -15 -5 -8 20 -13 -1 29 -11 -4 -18 -25 -24 28 -28 -17 -7
right_child=1 -3 5 6 7 10 16 8 -10 21 -12 18 -14 14 -16 26 23 -19 -20 -21 -22 -23 25 24 -26 -27 27 -29 -30 -31
leaf_value=-9429.6750506901699 129438.84935897436 330679.24291666667 28744.311362304692 -1787.7644386396016 134262.01736111109 41248.056250000001 3771.131174785588 141719.016875 173234.73327205883 -6221.3051336838189 54485.089933894225 106316.03016304348 128325.92718750001 146180.8169117647 165171.1511904762 -1184.1407601928711 7637.9906195427393 43174.535742187501 116522.85360576923 -8117.5681040648706 30451.702639358107 -3920.6855183585744 17707.61669108073 6847.7282958984379 16243.700992838541 24139.233081054688 5856.7211328843068 1754.8006109001931 3052.9627540588381 36026.554489087306
leaf_weight=4589 39 30 20 438 27 21 147 20 34 399 26 23 20 34 21 95 170 28 26 853 37 244 24 20 24 32 34 178 32 63
leaf_count=4589 39 30 20 438 27 21 147 20 34 399 26 23 20 34 21 95 170 28 26 853 37 244 24 20 24 32 34 178 32 63
internal_value=0 159847 -5737.53 -7135.92 138843 34503.7 1839.42 149710 161562 -8814.46 39360.5 119579 143435 147120 153432 -368.541 6591.74 36721.4 111732 -9224.01 35228.1 -5348.29 23320.1 8529.26 11972.8 21382.8 1465.15 2412.66 -116.524 37331.9
internal_weight=0 274 7474 7223 244 251 1138 156 54 6085 175 88 102 82 55 777 361 149 49 5442 121 643 76 214 44 56 339 212 127 84
internal_count=7748 274 7474 7223 244 251 1138 156 54 6085 175 88 102 82 55 777 361 149 49 5442 121 643 76 214 44 56 339 212 127 84
is_linear=0
shrinkage=0.05


Tree=14
num_leaves=31
num_cat=0
split_feature=2 2 1 0 0 2 1 2 3 2 2 5 3 2 2 0 1 3 2 3 3 5 2 0 5 2 3 3 3 2
split_gain=2.61614e+15 3.57213e+14 1.5183e+14 3.92991e+13 1.97714e+13 6.02586e+12 4.92175e+12 4.04739e+12 3.55459e+12 3.36731e+12 2.52172e+12 2.45795e+12 2.19355e+12 2.28447e+12 1.47735e+12 7.40202e+11 6.55658e+11 5.18339e+11 5.16349e+11 4.5898e+11 4.49497e+11 2.88299e+11 2.53847e+11 2.37102e+11 3.4768e+11 2.04796e+11 1.75004e+11 1.73398e+11 1.54281e+11 1.50445e+11
threshold=4227678.0000000009 9217845.0000000019 947115.00000000012 240858.00000000003 5615016.5000000009 7725500.0000000009 1455421.5000000002 510065.00000000006 635.00000000000011 92605.500000000015 2579983.5000000005 13.500000000000002 435.50000000000006 6172978.5000000009 6990048.0000000009 606060.00000000012 360305.00000000006 1185.5000000000002 32771.000000000007 533.50000000000011 692.50000000000011 12.500000000000002 167971.50000000003 795752.00000000012 13.500000000000002 1137935.0000000002 580.00000000000011 787.50000000000011 946.50000000000011 432373.00000000006
decision_type=2 2 2 2 2 2 2 2 2 2 2 2 2 2 2 2 2 2 2 2 2 2 2 2 2 2 2 2 2 2
left_child=2 4 3 9 11 8 21 16 12 18 17 -2 13 -6 -15 -9 -5 20 -1 -13 -8 -4 -11 28 -25 -23 29 -28 -17 -18
right_child=1 -3 6 7 5 -7 10 15 -10 22 -12 19 -14 14 -16 23 26 -19 -20 -21 -22 25 -24 24 -26 -27 27 -29 -30 -31
leaf_value=-8949.9031963625675 122966.90657051283 321072.66004464286 27307.095270996095 -1554.6660836854801 150750.08645833333 167450.48579545456 36295.297415865389 3485.2317747351244 151993.60272435899 -5776.7572881559054 51760.835621995197 101000.22961956523 119366.55656250002 121433.43968750001 138655.21761363637 6420.5658767465447 -1068.9073210533629 41015.809235491077 -7610.31525904726 110696.71177884616 30183.41102120536 16822.23584391276 -3732.9190664392481 6505.3418945312505 15431.515661621095 22932.271435546878 5563.8850406422343 1667.0605517440968 9971.5479956054696 2900.3146492004398
leaf_weight=4650 39 28 20 413 24 22 65 146 39 328 26 23 20 20 33 130 94 28 851 26 56 24 283 20 24 32 34 178 40 32
leaf_count=4650 39 28 20 413 24 22 65 146 39 328 26 23 20 20 33 130 94 28 851 26 56 24 283 20 24 32 34 178 40 32
internal_value=0 151855 -5450.66 -6779.12 132594 143173 32778.5 1871.29 139245 -8351.54 37392.5 113600 134120 137952 132156 6230.12 -218.156 34885.3 -8742.67 106145 33466.7 22154.1 -4830.1 8102.8 11374.2 20313.7 1414.92 2292.02 7256.09 -60.8509
internal_weight=0 274 7474 7223 246 158 251 1111 136 6112 175 88 97 77 53 360 751 149 5501 49 121 76 611 214 44 56 338 212 170 126
internal_count=7748 274 7474 7223 246 158 251 1111 136 6112 175 88 97 77 53 360 751 149 5501 49 121 76 611 214 44 56 338 212 170 126
is_linear=0
shrinkage=0.05


Tree=15
num_leaves=31
num_cat=0
split_feature=1 1 2 1 1 4 1 3 2 2 3 4 2 2 4 4 4 2 1 5 1 1 3 1 3 4 5 4 5 1
split_gain=2.29211e+15 3.58516e+14 1.16462e+14 3.64737e+13 1.22203e+13 7.7137e+12 5.72721e+12 4.51223e+12 5.99054e+12 3.76997e+12 3.7296e+12 3.34869e+12 2.86441e+12 2.67927e+12 1.75796e+12 1.46703e+12 1.02938e+12 1.01729e+12 9.69559e+11 6.42625e+11 3.92758e+11 3.53529e+11 3.52561e+11 3.48892e+11 2.35862e+11 2.22294e+11 2.1607e+11 1.85043e+11 1.53868e+11 2.13637e+11
threshold=2859597.0000000005 8622900.0000000019 1010743.0000000001 235681.50000000003 4998240.0000000009 1.8333333333333337 6266344.5000000009 752.50000000000011 6990048.0000000009 562126.50000000012 533.50000000000011 2.166666666666667 78019.500000000015 1547910.0000000002 0.58333333333333337 1.5833333333333337 1.8333333333333337 1799226.0000000002 360305.00000000006 12.500000000000002 784920.00000000012 1302046.5000000002 517.50000000000011 20135.500000000004 162.50000000000003 2.166666666666667 13.500000000000002 1.8333333333333337 4.5000000000000009 144823.00000000003
decision_type=2 2 2 2 2 2 2 2 2 2 2 2 2 2 2 2 2 2 2 2 2 2 2 2 2 2 2 2 2 2
left_child=2 4 3 12 10 6 14 8 11 18 -2 -7 23 16 -6 17 21 -15 -5 -16 24 -4 28 -1 -11 -17 -22 -20 29 -14
right_child=1 -3 13 9 5 7 -8 -9 -10 20 -12 -13 22 15 19 25 -18 -19 27 -21 26 -23 -24 -25 -26 -27 -28 -29 -30 -31
leaf_value=-8539.3351163898406 116074.64635416667 328072.67907608696 22502.352980090727 -1580.5251480566615 117886.03468750001 113734.50468750001 157469.42592592596 135461.50840517241 130584.39547413793 9038.7557637965419 89820.611788054448 87986.141304347839 -5057.7371419270839 34034.594788707385 128211.1953125 27367.195102163463 14471.570655168805 47563.635839843751 2684.4660232757569 139569.53712121211 7814.4529085101503 30328.241059027776 -5981.5967275928124 -7526.596928200106 5039.486307423017 32325.076738281252 13909.117078575722 649.62831415846802 -4246.7614167865959 1067.1008203125
leaf_weight=4285 24 23 31 411 20 28 27 29 29 47 31 23 24 33 20 52 28 24 250 33 33 27 377 1061 171 40 26 202 266 35
leaf_count=4285 24 23 31 411 20 28 27 29 29 47 31 23 24 33 20 52 28 24 250 33 33 27 377 1061 171 40 26 202 266 35
internal_value=0 138742 -5265.29 -6397.7 122247 127766 137794 118565 112440 1805.99 101277 102122 -7944.03 29371.9 130517 33428 22344.6 39731 176.994 135283 6881.18 26145.4 -4941.22 -8338.34 5901.71 29522.8 10500.2 1775.09 -3734.39 -1424.36
internal_weight=0 287 7423 7188 264 209 100 109 80 1140 55 51 6048 235 73 149 86 57 863 53 277 58 702 5346 218 92 59 452 325 59
internal_count=7710 287 7423 7188 264 209 100 109 80 1140 55 51 6048 235 73 149 86 57 863 53 277 58 702 5346 218 92 59 452 325 59
is_linear=0
shrinkage=0.05


Tree=16
num_leaves=31
num_cat=0
split_feature=1 0 0 0 0 4 0 0 3 3 0 4 1 0 4 0 3 0 5 3 0 0 1 3 4 0 3 1 3 4
split_gain=2.06863e+15 3.23601e+14 1.06673e+14 2.87972e+13 1.92807e+13 7.10232e+12 8.37131e+12 6.7044e+12 3.5269e+12 3.75688e+12 2.71664e+12 2.16889e+12 2.14388e+12 1.32615e+12 1.20581e+12 2.33526e+12 9.69432e+11 9.66227e+11 9.64919e+11 7.25121e+11 5.73319e+11 4.29539e+11 3.57926e+11 3.50234e+11 2.90471e+11 2.85786e+11 1.93472e+11 1.78353e+11 1.26057e+11 1.91339e+11
threshold=2859597.0000000005 8590060.0000000019 795752.00000000012 240858.00000000003 5100615.0000000009 1.8333333333333337 6501430.0000000009 1373809.5000000002 752.50000000000011 168.00000000000003 92120.000000000015 1.8333333333333337 432373.00000000006 4685850.0000000009 1.8333333333333337 1875754.0000000002 956.50000000000011 1017433.0000000001 12.500000000000002 411.00000000000006 606060.00000000012 19188.500000000004 360305.00000000006 921.50000000000011 2.166666666666667 331628.00000000006 580.00000000000011 136132.50000000003 908.50000000000011 1.8333333333333337
decision_type=2 2 2 2 2 2 2 2 2 2 2 2 2 2 2 2 2 2 2 2 2 2 2 2 2 2 2 2 2 2
left_child=2 4 3 10 11 6 16 17 9 -7 21 13 25 -2 15 23 18 -4 -6 -11 28 -1 27 -9 -16 -5 -27 -12 -14 -30
right_child=1 -3 7 12 5 8 -8 14 -10 19 22 -13 20 -15 24 -17 -18 -19 -20 -21 -22 -23 -24 -25 -26 26 -28 -29 29 -31
leaf_value=-8123.0223549788634 93336.834254807691 307559.21725260414 10382.833606734366 -1693.872836303711 123597.82375000001 126829.39077380951 163167.96562500001 34440.118607954551 129872.06293103448 95344.578385416666 -5518.3423220537297 83471.292878069202 3532.6081306895994 110016.53522727273 24011.241423233696 50068.095546875003 119233.23950892857 19722.235428172145 139129.39781249998 107511.97825 6353.8294636276541 -7056.4964341782388 2079.8742094494046 27355.110987317883 29837.119238281251 -727.10600903589022 1793.7869986899912 -3751.7336649445565 3690.5423810686389 -172.08766731770834
leaf_weight=4258 26 24 53 300 20 21 20 33 29 24 265 28 174 22 46 20 28 58 20 25 159 1213 21 37 40 159 146 310 56 75
leaf_count=4258 26 24 53 300 20 21 20 33 29 24 265 28 174 22 46 20 28 58 20 25 159 1213 21 37 40 159 146 310 56 75
internal_value=0 131805 -5002.03 -6204.07 115766 124397 134732 24885.7 115210 109136 -7537.35 94530.5 1362.79 100982 30954.7 35000.3 126369 15262.9 131364 101552 3919.6 -7886.56 -4331.75 30695.2 26721 -598.147 479.617 -4565.91 2650.62 1479.11
internal_weight=0 287 7423 7136 263 187 88 287 99 70 6067 76 1069 48 176 90 68 111 40 49 464 5471 596 70 86 605 305 575 305 131
internal_count=7710 287 7423 7136 263 187 88 287 99 70 6067 76 1069 48 176 90 68 111 40 49 464 5471 596 70 86 605 305 575 305 131
is_linear=0
shrinkage=0.05


Tree=17
num_leaves=31
num_cat=0
split_feature=2 2 1 0 0 1 2 2 0 0 3 3 3 3 0 3 5 5 3 5 0 1 5 0 2 0 5 1 1 0
split_gain=1.86872e+15 2.88237e+14 1.07256e+14 2.88176e+13 1.14306e+13 4.46464e+12 3.36403e+12 2.59119e+12 2.45177e+12 2.40606e+12 2.34087e+12 5.11449e+12 1.57897e+12 1.27675e+12 8.06804e+11 6.89408e+11 6.44699e+11 1.28074e+12 5.87783e+11 5.46027e+11 3.87659e+11 3.23028e+11 2.81485e+11 2.55623e+11 2.46538e+11 2.25157e+11 2.47748e+11 2.17304e+11 1.9361e+11 1.82005e+11
threshold=4227678.0000000009 9217845.0000000019 947115.00000000012 240858.00000000003 5100615.0000000009 1455421.5000000002 7725500.0000000009 432373.00000000006 92120.000000000015 2538900.0000000005 635.00000000000011 365.50000000000006 1040.0000000000002 411.00000000000006 649991.50000000012 1185.5000000000002 13.500000000000002 19.500000000000004 644.00000000000011 14.500000000000002 19188.500000000004 360305.00000000006 13.500000000000002 429243.50000000006 1799226.0000000002 1155039.5000000002 14.500000000000002 1601466.5000000002 603945.00000000012 795752.00000000012
decision_type=2 2 2 2 2 2 2 2 2 2 2 2 2 2 2 2 2 2 2 2 2 2 2 2 2 2 2 2 2 2
left_child=2 4 3 8 16 25 10 23 20 15 11 19 -12 -13 28 18 -2 -18 24 -6 -1 -10 -16 -5 -7 26 -4 -20 -9 -24
right_child=1 -3 5 7 6 9 -8 14 21 -11 12 13 -14 -15 22 -17 17 -19 27 -21 -22 -23 29 -25 -26 -27 -28 -29 -30 -31
leaf_value=-7716.8715686832138 100695.88575000002 296884.70433084242 19008.397758556548 -963.65088961895788 118943.39437500002 35734.204829545452 135874.93463541669 2406.9760298258466 -4337.6143368769108 47725.689657738098 131487.35605468749 95456.575624999998 113578.48281250001 109254.84564144738 5109.3643566392875 36730.949539620538 82229.732528409106 99712.035937500012 28396.782812500001 130129.59505208333 -6703.6715705186016 1975.8805803571429 7985.5657486239352 2643.1665046974467 29114.587500000001 20377.002034108235 11328.058417728971 22239.160320723688 5416.9491455078132 13555.442229003907
leaf_weight=4258 25 23 21 544 20 22 24 300 575 21 32 30 20 38 73 28 22 20 23 24 1213 21 55 54 39 41 21 38 65 20
leaf_count=4258 25 23 21 544 20 22 24 300 575 21 32 30 20 38 73 28 22 20 23 24 1213 21 55 54 39 41 21 38 65 20
internal_value=0 127362 -4674.86 -5804.77 112071 27256.2 118391 1598.56 -7160.48 31874.5 115832 111762 124599 103167 4205.64 29655.3 94338.7 90554.6 28031.4 125045 -7492.23 -4115.16 7319.58 -637.952 31502 17741.2 15168.2 24560.9 2943 9470.87
internal_weight=0 278 7432 7178 255 254 188 1111 6067 171 164 112 52 68 513 150 67 42 122 44 5471 596 148 598 61 83 42 61 365 75
internal_count=7710 278 7432 7178 255 254 188 1111 6067 171 164 112 52 68 513 150 67 42 122 44 5471 596 148 598 61 83 42 61 365 75
is_linear=0
shrinkage=0.05


Tree=18
num_leaves=31
num_cat=0
split_feature=0 1 1 0 0 4 0 1 3 1 1 0 1 5 3 5 0 5 4 0 4 3 0 4 1 5 5 1 4 0
split_gain=1.68687e+15 2.5772e+14 1.01374e+14 2.60079e+13 9.29941e+12 5.5725e+12 6.68672e+12 5.2049e+12 2.52495e+12 2.61705e+12 2.27511e+12 2.21272e+12 2.20835e+12 1.45697e+12 1.07279e+12 9.54537e+11 5.43862e+11 4.7205e+11 4.71203e+11 4.59216e+11 3.94147e+11 3.79062e+11 3.50732e+11 3.13898e+11 2.91533e+11 2.86055e+11 2.23343e+11 1.60964e+11 1.51669e+11 1.40064e+11
threshold=4262700.0000000009 8622900.0000000019 947115.00000000012 240858.00000000003 5100615.0000000009 1.8333333333333337 6501430.0000000009 2365272.0000000005 752.50000000000011 7154550.0000000009 510735.50000000006 92120.000000000015 1455421.5000000002 16.500000000000004 956.50000000000011 12.500000000000002 373835.00000000006 16.500000000000004 1.8333333333333337 649991.50000000012 1.8333333333333337 692.50000000000011 30921.500000000004 0.58333333333333337 360305.00000000006 16.500000000000004 10.500000000000002 136132.50000000003 1.5833333333333337 795752.00000000012
decision_type=2 2 2 2 2 2 2 2 2 2 2 2 2 2 2 2 2 2 2 2 2 2 2 2 2 2 2 2 2 2
left_child=2 4 3 11 17 6 14 12 9 -7 16 22 18 -9 15 -6 -5 -2 25 -12 23 -22 -1 -14 27 -4 28 -13 -21 -28
right_child=1 -3 7 10 5 8 -8 13 -10 -11 19 24 20 -15 -16 -17 -18 -19 -20 26 21 -23 -24 -25 -26 -27 29 -29 -30 -31
leaf_value=-7294.6675945021898 86604.314017857148 282110.77311480977 23440.812962962966 -1146.9814125414248 111808.458125 92497.765964673919 147308.43375 52257.958593750001 117083.84310344828 112595.925 3335.8700241738184 -5025.5445290331572 24608.280208333337 33611.589098011369 106929.54575892858 127071.24196428571 1515.418278534378 95403.530266203714 12331.51886776195 6578.9859313964844 28569.571623883927 20659.979758522728 -6212.3949567502841 31871.613583792892 1877.0864955357142 15760.133451704545 7334.5723406623401 -3347.2663156423259 1028.5144482421874 11649.323820612983
leaf_weight=4576 35 23 27 432 20 46 20 20 29 25 188 265 21 22 28 21 345 27 34 32 28 33 895 51 21 22 68 310 20 26
leaf_count=4576 35 23 27 432 20 46 20 20 29 25 188 265 21 22 28 21 345 27 34 32 28 33 895 51 21 22 68 310 20 26
internal_value=0 121919 -4407.72 -5514.53 107240 112752 121852 26385.5 104652 99574.6 1518.63 -6802.46 23253.9 42490.8 114474 119626 35.1652 90436.2 16854.2 4969.68 27247.8 24290.6 -7117.62 29753.1 -3909.4 19992.3 7073.5 -4120.73 4444.19 8528.01
internal_weight=0 274 7436 7178 251 189 89 258 100 71 1111 6067 216 42 69 41 777 62 83 334 133 61 5471 72 596 49 146 575 52 94
internal_count=7710 274 7436 7178 251 189 89 258 100 71 1111 6067 216 42 69 41 777 62 83 334 133 61 5471 72 596 49 146 575 52 94
is_linear=0
shrinkage=0.05


Tree=19
num_leaves=31
num_cat=0
split_feature=2 2 1 1 2 3 3 1 4 1 2 2 2 3 4 3 3 2 4 3 5 3 1 2 3 3 5 3 4 2
split_gain=1.52272e+15 2.35586e+14 8.72067e+13 2.33493e+13 4.90563e+12 4.43577e+12 6.0278e+12 3.61423e+12 2.49886e+12 3.48099e+12 2.25428e+12 1.9306e+12 1.66135e+12 1.38473e+12 1.34789e+12 1.15525e+12 2.70332e+12 5.68464e+11 4.25261e+11 2.97614e+11 2.58165e+11 2.45226e+11 2.40784e+11 2.12913e+11 2.10829e+11 2.8822e+11 3.54771e+11 1.70362e+11 1.60871e+11 1.45051e+11
threshold=4227678.0000000009 9217845.0000000019 947115.00000000012 235681.50000000003 7725500.0000000009 365.50000000000006 536.50000000000011 1455421.5000000002 1.5833333333333337 1819350.0000000002 432373.00000000006 72726.000000000015 6172978.5000000009 1059.5000000000002 2.166666666666667 533.50000000000011 392.00000000000006 599987.50000000012 1.8333333333333337 517.50000000000011 16.500000000000004 692.50000000000011 335917.50000000006 9136.0000000000018 162.50000000000003 580.00000000000011 12.500000000000002 1119.5000000000002 1.8333333333333337 662433.00000000012
decision_type=2 2 2 2 2 2 2 2 2 2 2 2 2 2 2 2 2 2 2 2 2 2 2 2 2 2 2 2 2 2
left_child=2 4 3 11 5 12 14 18 9 -9 22 23 -2 -8 15 16 -7 -12 20 -13 -4 -10 -5 -1 29 26 -26 -23 -24 -19
right_child=1 -3 7 10 -6 6 13 8 21 -11 17 19 -14 -15 -16 -17 -18 24 -20 -21 -22 27 28 -25 25 -27 -28 -29 -30 -31
leaf_value=-7162.4084516141857 122550.2463068182 268227.98345788044 22268.772511574076 -1638.9373296620656 122659.86276041668 88635.717826704553 114001.66674679489 27593.713250000001 26357.417280016452 49872.939713541673 2376.326871784684 -2984.4004020599 103881.14567307693 97819.672968750005 79220.46412037038 84074.670214843762 110439.86324404762 5530.8904960937507 11714.942889045267 -4985.4461730089242 14972.126811079544 18851.155403645836 1296.3913000479513 -6524.4189032905433 -1001.5679799107144 7214.9112847028464 5415.4981035505025 24456.843800951086 -1167.3518804104531 10649.750500882057
leaf_weight=2358 22 23 27 326 24 44 39 50 38 27 306 332 26 20 27 32 21 25 34 422 22 33 174 2936 35 70 56 23 107 31
leaf_count=2358 22 23 27 326 24 44 39 50 38 27 306 332 26 20 27 32 21 25 34 422 22 33 174 2936 35 70 56 23 107 31
internal_value=0 114968 -4219.96 -5238.8 101145 98909.2 95360.7 24572.4 28727.7 35405.9 1358.58 -6471.45 112438 108516 89101.2 91851.5 95680.1 3764.49 16011.5 -4104.35 18992.7 23257.2 -714.379 -6808.59 5721.99 4802.84 2947.4 21153.5 358.24 8364.55
internal_weight=0 278 7432 7178 255 231 183 254 171 77 1130 6048 48 59 124 97 65 523 83 754 49 94 607 5294 217 161 91 56 281 56
internal_count=7710 278 7432 7178 255 231 183 254 171 77 1130 6048 48 59 124 97 65 523 83 754 49 94 607 5294 217 161 91 56 281 56
is_linear=0
shrinkage=0.05


Tree=20
num_leaves=31
num_cat=0
split_feature=2 0 0 2 0 0 4 0 2 4 0 5 5 0 2 0 0 5 0 0 0 2 4 5 0 5 5 5 4 5
split_gain=1.35341e+15 1.50455e+14 7.8311e+13 1.92417e+13 9.49239e+12 6.62182e+12 2.0695e+12 5.91058e+12 2.06137e+12 2.0228e+12 4.26006e+12 1.84062e+12 1.69001e+12 1.56186e+12 1.41697e+12 1.05625e+12 5.24328e+11 4.37682e+11 4.1328e+11 2.48981e+11 2.25511e+11 2.19507e+11 1.90401e+11 1.59581e+11 1.43917e+11 1.30991e+11 1.68698e+11 1.42827e+11 1.07434e+11 1.04703e+11
threshold=4227678.0000000009 8590060.0000000019 795752.00000000012 183860.00000000003 5100615.0000000009 1373809.5000000002 1.8333333333333337 6019884.0000000009 432373.00000000006 1.8333333333333337 1875754.0000000002 12.500000000000002 16.500000000000004 6950364.5000000009 6990048.0000000009 64557.500000000007 1155039.5000000002 11.500000000000002 566904.00000000012 293620.00000000006 135792.00000000003 5888400.0000000009 1.8333333333333337 10.500000000000002 11776.000000000002 16.500000000000004 9.5000000000000018 4.5000000000000009 2.416666666666667 19.500000000000004
decision_type=2 2 2 2 2 2 2 2 2 2 2 2 2 2 2 2 2 2 2 2 2 2 2 2 2 2 2 2 2 2
left_child=2 4 3 15 12 16 7 21 19 10 -7 13 -2 -8 -13 24 23 -11 -10 -5 -17 -6 -21 -4 -1 26 27 -20 -24 -27
right_child=1 -3 5 8 6 9 11 -9 18 17 -12 14 -14 -15 -16 20 -18 -19 25 22 -22 -23 28 -25 -26 29 -28 -29 -30 -31
leaf_value=-6777.77515993415 72525.790104166663 218651.41523437502 6668.852900390626 -2049.6706300649507 94195.758796296301 25341.489184570313 115297.69109375001 124375.96723484849 1782.6746509595041 27219.857060185186 49681.070593750002 83890.931666666671 89074.009837962978 95991.806960227274 99530.523660714287 -4916.5012044270843 17833.180390624999 19755.043215603302 1761.2586658296132 626.09925970054542 -2753.814721543622 100697.70912500001 -2603.3146177966187 11147.728983216366 -6248.0563089145053 8927.2625713641828 1777.6748551432293 6573.6948263234117 37.938299269903276 5041.2098487267131
leaf_weight=2603 36 28 30 355 27 64 20 33 277 27 25 30 27 22 28 519 25 72 21 249 157 25 99 59 2527 26 60 58 63 52
leaf_count=2603 36 28 30 355 27 64 20 33 277 27 25 30 27 22 28 519 25 72 21 249 157 25 99 59 2527 26 60 58 63 52
internal_value=0 108785 -3990.87 -5056.54 96380.7 20943 102089 107825 544.366 26708.4 32178.5 97213.6 79617.9 105185 91441.1 -6272.03 11435.2 21790.9 3062.7 -1079.73 -4414.22 97321.7 -241.945 9638 -6516.84 4696.65 3776.41 5294.44 -1576.16 6336.56
internal_weight=0 276 7368 7066 248 302 185 85 1260 188 89 100 63 42 58 5806 114 99 494 766 676 52 411 89 5130 217 139 79 162 78
internal_count=7644 276 7368 7066 248 302 185 85 1260 188 89 100 63 42 58 5806 114 99 494 766 676 52 411 89 5130 217 139 79 162 78
is_linear=0
shrinkage=0.05


Tree=21
num_leaves=31
num_cat=0
split_feature=1 0 0 1 0 0 4 4 0 0 5 0 3 0 4 5 0 0 3 1 5 4 0 3 3 3 3 1 3 3
split_gain=1.22501e+15 1.41097e+14 5.99687e+13 1.74707e+13 1.44754e+13 4.42782e+12 2.27157e+12 2.01041e+12 5.0809e+12 1.92128e+12 1.66116e+12 1.40958e+12 1.24988e+12 9.75253e+11 4.81071e+11 4.75396e+11 4.42638e+11 3.49434e+11 2.87277e+11 2.67944e+11 2.65732e+11 2.35256e+11 1.63385e+11 1.55482e+11 1.68165e+11 1.24994e+11 3.49544e+11 1.31845e+11 1.57218e+11 1.23244e+11
threshold=2859597.0000000005 8590060.0000000019 795752.00000000012 185081.00000000003 5100615.0000000009 1155039.5000000002 1.8333333333333337 1.8333333333333337 6019884.0000000009 429243.50000000006 12.500000000000002 6950364.5000000009 452.50000000000006 57544.500000000007 1.8333333333333337 14.500000000000002 1726569.0000000002 566904.00000000012 548.00000000000011 335917.50000000006 14.500000000000002 2.166666666666667 135792.00000000003 548.00000000000011 310.50000000000006 310.50000000000006 359.00000000000006 226405.50000000003 548.00000000000011 580.00000000000011
decision_type=2 2 2 2 2 2 2 2 2 2 2 2 2 2 2 2 2 2 2 2 2 2 2 2 2 2 2 2 2 2
left_child=2 4 3 13 6 23 15 8 -6 19 11 -9 -12 -1 16 -2 -7 -11 -16 25 -20 -22 -15 24 -4 -5 -27 -28 -29 -21
right_child=1 -3 5 9 7 14 -8 10 -10 17 12 -13 -14 22 18 -17 -18 -19 20 29 21 -23 -24 -25 -26 26 27 28 -30 -31
leaf_value=-6207.3792546571021 72653.996331521746 207718.84394531252 9577.4642252604172 -695.50771200656891 93073.489843750009 22573.983328919494 59921.69081333706 109532.8059375 118157.16912878789 1823.4611560611274 93035.768841911762 91192.21732954547 78132.804296875009 -4683.2903298521442 23697.04298878205 82614.57650000001 29736.577941176471 4552.3036577977173 14214.80739453125 -689.7412267838946 16911.933212425596 24310.601526988637 -2920.7741671970912 12086.856826171876 3938.2850585937504 -5082.3514101327191 -3268.8500204152078 2528.3160626579738 -1338.0099995054049 1379.9957571176383
leaf_weight=5047 23 28 39 192 52 59 28 20 33 254 34 22 24 605 39 25 34 218 25 161 21 22 168 30 20 83 58 34 116 130
leaf_count=5047 23 28 39 192 52 59 28 20 33 254 34 22 24 605 39 25 34 218 25 161 21 22 168 30 20 83 58 34 116 130
internal_value=0 101054 -3890.64 -4803.71 89611.1 18433.7 71239.7 97158.4 102812 569.583 92352.9 99925.8 86869 -5954.08 22562.2 77841.8 25192.6 3083.82 20276.1 -963.645 18314 20697.3 -4300.23 9156.1 7665.88 -1685.74 -2339.09 -1244.42 -461.643 234.884
internal_weight=0 289 7355 7066 261 289 76 185 85 1246 100 42 58 5820 200 48 93 472 107 774 68 43 773 89 59 483 291 208 150 291
internal_count=7644 289 7355 7066 261 289 76 185 85 1246 100 42 58 5820 200 48 93 472 107 774 68 43 773 89 59 483 291 208 150 291
is_linear=0
shrinkage=0.05


Tree=22
num_leaves=31
num_cat=0
split_feature=1 0 0 1 0 0 0 3 5 3 3 3 1 1 0 0 2 1 2 5 2 1 5 0 3 5 3 0 3 3
split_gain=1.10558e+15 1.2734e+14 5.41217e+13 1.57673e+13 1.30641e+13 3.99611e+12 1.73395e+12 1.69137e+12 1.51459e+12 1.19295e+12 2.86517e+12 2.77185e+12 3.84769e+12 1.87137e+12 8.80166e+11 4.04937e+11 3.42625e+11 2.41819e+11 1.7046e+11 2.68348e+11 1.50519e+11 1.46904e+11 2.88498e+11 1.1698e+11 1.16709e+11 1.17144e+11 1.34012e+11 1.29453e+11 1.12807e+11 3.15464e+11
threshold=2859597.0000000005 8590060.0000000019 795752.00000000012 185081.00000000003 5100615.0000000009 1155039.5000000002 429243.50000000006 533.50000000000011 22.500000000000004 365.50000000000006 411.00000000000006 956.50000000000011 6266344.5000000009 6659640.0000000009 57544.500000000007 1527255.0000000002 599987.50000000012 335917.50000000006 2015057.5000000002 16.500000000000004 117155.00000000001 947115.00000000012 13.500000000000002 9741.0000000000018 895.50000000000011 16.500000000000004 162.50000000000003 681502.00000000012 310.50000000000006 359.00000000000006
decision_type=2 2 2 2 2 2 2 2 2 2 2 2 2 2 2 2 2 2 2 2 2 2 2 2 2 2 2 2 2 2
left_child=2 4 3 14 7 21 17 -2 9 -6 -11 12 -12 -13 23 -7 -8 28 -17 -20 -16 22 -4 -1 25 26 -18 -28 -5 -30
right_child=1 -3 5 6 8 15 16 -9 -10 10 11 13 -14 -15 20 18 24 -19 19 -21 -22 -23 -24 -25 -26 -27 27 -29 29 -31
leaf_value=-6153.3547357293874 74753.930390625013 197332.908203125 2612.6761452414776 -660.73232079346974 101891.48251689191 17484.649785754147 1895.5569409970885 59815.159572018521 80293.681793478259 77581.187611607151 89540.409226190473 95647.72412109375 119142.53396739131 76438.795833333337 -4559.0751049020118 21274.878927577229 5522.5909912109382 223.1393439931968 27529.750151909728 21003.274058314735 -3057.8932592923525 10946.622204589845 10326.078837528936 -5670.9646715043291 7136.3129375256995 5845.1969846329603 3232.2322404749257 -1837.3050903320313 -4828.2338393613518 -1182.2006150025588
leaf_weight=2365 40 28 22 192 37 49 297 36 23 28 21 32 23 21 529 87 30 291 36 28 244 40 27 2682 38 53 34 20 83 208
leaf_count=2365 40 28 22 192 37 49 297 36 23 28 21 32 23 21 529 87 30 291 36 28 244 40 27 2682 38 53 34 20 83 208
internal_value=0 96001.4 -3696.11 -4563.53 85130.6 17512 541.104 67677.7 92300.4 94005.1 91670.7 95737.8 105014 88036.6 -5656.37 21434.1 2929.63 -915.463 22715.7 24674.4 -4085.22 8698.29 6862.92 -5897.01 4684.59 4004.55 2843.18 1354.63 -1601.45 -2222.13
internal_weight=0 289 7355 7066 261 289 1246 76 185 162 125 97 44 53 5820 200 472 774 151 64 773 89 49 5047 175 137 84 54 483 291
internal_count=7644 289 7355 7066 261 289 1246 76 185 162 125 97 44 53 5820 200 472 774 151 64 773 89 49 5047 175 137 84 54 483 291
is_linear=0
shrinkage=0.05


Tree=23
num_leaves=31
num_cat=0
split_feature=1 0 0 1 0 0 4 4 0 0 0 0 3 2 4 0 2 2 2 3 1 3 4 3 3 3 0 2 1 3
split_gain=9.97782e+14 1.14924e+14 4.88449e+13 1.423e+13 1.17903e+13 3.60649e+12 2.01226e+12 1.77422e+12 4.43348e+12 1.56489e+12 1.25427e+12 7.96647e+11 6.52392e+11 1.70602e+12 4.45462e+11 4.02206e+11 3.86982e+11 3.33973e+11 3.09219e+11 2.23212e+11 2.18242e+11 1.51516e+11 1.33096e+11 1.47708e+11 1.32934e+11 1.4591e+11 1.16692e+11 1.16099e+11 1.11487e+11 1.0533e+11
threshold=2859597.0000000005 8590060.0000000019 795752.00000000012 185081.00000000003 5100615.0000000009 1155039.5000000002 1.8333333333333337 1.8333333333333337 6019884.0000000009 429243.50000000006 5806593.0000000009 64557.500000000007 536.50000000000011 6990048.0000000009 1.8333333333333337 4685850.0000000009 1799226.0000000002 1700419.5000000002 599987.50000000012 692.50000000000011 335917.50000000006 517.50000000000011 1.8333333333333337 787.50000000000011 548.00000000000011 310.50000000000006 11776.000000000002 5888400.0000000009 432373.00000000006 895.50000000000011
decision_type=2 2 2 2 2 2 2 2 2 2 2 2 2 2 2 2 2 2 2 2 2 2 2 2 2 2 2 2 2 2
left_child=2 4 3 11 6 24 15 8 27 20 -9 26 13 -12 16 -2 -7 -16 22 -19 -5 -13 -11 -24 25 -4 -1 -6 -22 -20
right_child=1 -3 5 9 7 14 -8 10 -10 18 12 21 -14 -15 17 -17 -18 19 29 -21 28 -23 23 -25 -26 -27 -28 -29 -30 -31
leaf_value=-5823.0550769994961 66471.208333333343 187466.25915178572 8666.0612818008813 -1521.3802346460568 81626.27488425927 21044.731165248329 53641.407774135041 93714.955326704541 107330.78342803031 2672.2998872918597 66759.834103260873 -2760.6962466954192 86141.093480603449 85454.161298076928 13470.374802943639 75697.416964285716 28520.297724184784 23132.668069556454 3804.3198016758383 17689.635642496745 -195.53236290485631 -4317.8661936419503 2996.1116261291504 -725.12685974836359 10973.305022786459 3413.2479394531251 -5346.0653347557318 86354.884125000011 2562.3000217464082 6779.4972738165598
leaf_weight=2603 27 28 39 483 27 70 28 22 33 177 23 239 29 26 28 21 23 31 137 48 248 451 40 80 30 20 2527 25 43 38
leaf_count=2603 27 28 39 483 27 70 28 22 33 177 23 239 29 26 28 21 23 31 137 48 248 451 40 80 30 20 2527 25 43 38
internal_value=0 91201.3 -3511.31 -4335.35 80874.1 16636.4 64293.8 87685.4 92996.4 514.048 83171.1 -5373.55 80197.1 76679.3 20362.4 70507.7 22893.5 18162.5 2783.14 19825.5 -869.69 -3778.5 1800.78 515.286 8263.38 6885.45 -5588.09 83899.6 211.982 4450.36
internal_weight=0 289 7355 7066 261 289 76 185 85 1246 100 5820 78 49 200 48 93 107 472 79 774 690 297 120 89 59 5130 52 291 175
internal_count=7644 289 7355 7066 261 289 76 185 85 1246 100 5820 78 49 200 48 93 107 472 79 774 690 297 120 89 59 5130 52 291 175
is_linear=0
shrinkage=0.05


Tree=24
num_leaves=31
num_cat=0
split_feature=0 0 1 1 0 1 4 0 5 5 2 0 0 2 1 5 0 4 4 0 5 1 4 0 5 4 4 2 2 1
split_gain=9.00913e+14 9.7813e+13 5.51824e+13 1.42151e+13 5.30907e+12 2.88665e+12 1.73805e+12 3.76467e+12 1.4628e+12 1.45272e+12 1.44384e+12 1.30731e+12 1.1996e+12 1.18069e+12 1.14439e+12 3.41925e+11 2.87903e+11 2.40902e+11 2.72543e+11 2.1599e+11 1.98001e+11 1.87837e+11 1.79882e+11 2.21135e+11 2.01121e+11 1.81396e+11 1.8861e+11 1.91226e+11 1.39078e+11 1.2223e+11
threshold=4262700.0000000009 8590060.0000000019 947115.00000000012 235681.50000000003 5100615.0000000009 2365272.0000000005 1.8333333333333337 6019884.0000000009 12.500000000000002 16.500000000000004 562126.50000000012 6950364.5000000009 92120.000000000015 6990048.0000000009 1455421.5000000002 18.500000000000004 395371.00000000006 0.41666666666666669 1.8333333333333337 1155039.5000000002 14.500000000000002 35693.000000000007 1.0000000180025095e-35 761015.50000000012 10.500000000000002 1.8333333333333337 2.166666666666667 702738.50000000012 2015057.5000000002 37193.500000000007
decision_type=2 2 2 2 2 2 2 2 2 2 2 2 2 2 2 2 2 2 2 2 2 2 2 2 2 2 2 2 2 2
left_child=2 4 3 12 9 14 7 20 11 -2 16 -8 21 -10 19 -7 -5 -16 -19 -4 -6 -1 24 25 -12 -24 27 -27 -20 -23
right_child=1 -3 5 10 6 15 8 -9 13 -11 22 -13 -14 -15 17 -17 -18 18 28 -21 -22 29 23 -25 -26 26 -28 -29 -30 -31
leaf_value=-5370.0103784671528 59245.780871212126 178092.94296875002 9472.3884936523446 -668.08643812940306 77775.996145833327 34210.002463942306 95370.835000000006 101964.24393939396 66974.497031250008 75413.038411458343 -1001.2238840410787 77708.122727272726 -2846.4966638481847 81250.697321428568 14913.065980113635 25933.858048502603 1215.5932870756039 23635.759322916667 16432.507346540177 14772.703135722393 83942.182201086951 -1388.0307552083334 5978.8128906250004 7616.5509690693452 4529.1701639229914 -2306.4456830705917 4892.8791426225143 4094.8875195312503 21071.908645833333 -4645.9142256450923
leaf_weight=4666 33 28 40 519 30 26 20 33 30 24 31 22 573 28 22 24 333 45 35 37 23 30 65 56 35 28 44 20 30 714
leaf_count=4666 33 28 40 519 30 26 20 33 30 24 31 22 573 28 22 24 333 45 35 37 23 30 65 56 35 28 44 20 30 714
internal_value=0 89600.2 -3224.83 -4050.19 79403.5 19445.4 83494.7 88706.6 79012.5 66053 1090.44 86118.9 -5021.95 73866.5 16863.5 30237.5 68.1405 19689.3 20644.6 12019.3 80451.9 -5252.36 4212.32 4919.03 1931.56 3956.86 2528.3 360.776 18573.8 -4514.55
internal_weight=0 271 7373 7114 243 259 186 86 100 57 1131 42 5983 58 209 50 852 132 110 77 53 5410 279 213 66 157 92 48 65 744
internal_count=7644 271 7373 7114 243 259 186 86 100 57 1131 42 5983 58 209 50 852 132 110 77 53 5410 279 213 66 157 92 48 65 744
is_linear=0
shrinkage=0.05


Tree=25
num_leaves=31
num_cat=0
split_feature=1 0 0 0 0 0 5 5 4 4 0 5 4 4 0 5 3 0 5 4 3 3 1 4 4 0 5 3 1 3
split_gain=7.82798e+14 8.88019e+13 4.20412e+13 1.10431e+13 1.01022e+13 3.75879e+12 2.35126e+12 2.48567e+12 2.1317e+12 1.50912e+12 1.44159e+12 1.43141e+12 1.33986e+12 6.51862e+11 8.29193e+11 5.02836e+11 4.52116e+11 3.78925e+11 2.8923e+11 2.65814e+11 2.29438e+11 3.25709e+11 2.42191e+11 2.27732e+11 2.22069e+11 2.18397e+11 2.14746e+11 2.08064e+11 1.9524e+11 1.20614e+11
threshold=2859597.0000000005 8590060.0000000019 761015.50000000012 135792.00000000003 5100615.0000000009 1373809.5000000002 12.500000000000002 6.5000000000000009 1.8333333333333337 1.4166666666666667 419576.00000000006 17.500000000000004 1.8333333333333337 1.8333333333333337 1875754.0000000002 15.500000000000002 1023.0000000000001 30921.500000000004 15.500000000000002 0.58333333333333337 447.50000000000006 322.00000000000006 46525.000000000007 1.1666666666666667 2.166666666666667 606060.00000000012 14.500000000000002 848.00000000000011 335917.50000000006 320.50000000000006
decision_type=2 2 2 2 2 2 2 2 2 2 2 2 2 2 2 2 2 2 2 2 2 2 2 2 2 2 2 2 2 2
left_child=2 4 3 17 12 16 7 9 15 -6 28 -10 18 14 27 -8 19 -1 -2 -4 21 -19 -23 -21 -15 -12 -25 -7 -5 -27
right_child=1 -3 5 10 6 13 8 -9 11 -11 25 -13 -14 24 -16 -17 -18 20 -20 23 -22 22 -24 26 -26 29 -28 -29 -30 -31
leaf_value=-5110.0487810399891 59079.625600961539 175844.98359375002 2636.737078735352 -1639.216496372519 69205.986309523811 22834.01070772059 77107.96413690476 98027.463671875012 61021.616330645164 86682.200416666674 1492.344525925726 76342.195364583327 48458.940985576926 13952.09937318314 31284.270265997027 87602.963875000016 14618.033187500001 -4070.3616123262691 66969.031770833346 12292.440328414354 -4494.4707558378423 4439.3461328125004 -1761.9431244721284 10069.104507211539 19128.034785156251 1648.3528691830843 3907.3732067477322 17450.031650904606 -43.648995898320123 4727.7381686608769
leaf_weight=4664 26 23 25 644 21 34 21 28 31 30 351 30 26 43 21 25 25 181 21 27 839 20 74 26 40 46 31 38 273 103
leaf_count=4664 26 23 25 644 21 34 21 28 31 30 351 30 26 43 21 25 25 181 21 27 839 20 74 26 40 46 31 38 273 103
internal_value=0 81690.2 -3165.32 -3942.1 73328.9 14863.5 79515.3 86057.7 74684.8 79486.1 13.4246 68556.3 57566.5 19667.6 22542.2 82811.8 8553.66 -4912.16 62604.7 7162.75 -4083.66 -2830.3 -442.52 8509.78 16446.5 2173.19 6717.99 19992.5 -1164.2 3777.06
internal_weight=0 282 7505 7195 259 310 186 79 107 51 1417 61 73 176 93 46 134 5778 47 109 1114 275 94 84 83 500 57 72 917 149
internal_count=7787 282 7505 7195 259 310 186 79 107 51 1417 61 73 176 93 46 134 5778 47 109 1114 275 94 84 83 500 57 72 917 149
is_linear=0
shrinkage=0.05


Tree=26
num_leaves=31
num_cat=0
split_feature=1 0 0 2 0 0 2 4 3 3 4 4 4 0 4 0 0 3 2 4 2 4 4 3 0 4 0 4 2 4
split_gain=7.06475e+14 8.01437e+13 3.79422e+13 9.973e+12 9.11726e+12 3.39231e+12 1.83407e+12 1.49443e+12 1.8043e+12 2.23454e+12 2.47992e+12 1.53489e+12 1.20922e+12 1.14243e+12 5.88306e+11 7.48346e+11 5.28529e+11 4.08035e+11 2.7355e+11 2.39898e+11 2.28284e+11 2.05528e+11 2.00417e+11 1.87778e+11 1.46591e+11 1.33629e+11 1.34413e+11 1.61514e+11 1.03493e+11 1.52036e+11
threshold=2859597.0000000005 8590060.0000000019 761015.50000000012 175172.00000000003 5100615.0000000009 1373809.5000000002 7725500.0000000009 2.5833333333333335 365.50000000000006 635.00000000000011 1.1666666666666667 1.5833333333333337 1.8333333333333337 395371.00000000006 1.8333333333333337 1875754.0000000002 92120.000000000015 1023.0000000000001 599987.50000000012 0.58333333333333337 4744350.0000000009 1.1666666666666667 2.166666666666667 848.00000000000011 11966.000000000002 1.8333333333333337 480655.00000000006 1.0000000180025095e-35 740975.00000000012 1.8333333333333337
decision_type=2 2 2 2 2 2 2 2 2 2 2 2 2 2 2 2 2 2 2 2 2 2 2 2 2 2 2 2 2 2
left_child=2 4 3 16 12 17 7 8 -6 11 -11 -10 20 -5 15 23 24 19 25 -4 -2 -21 -16 -7 -1 26 -15 -28 29 -20
right_child=1 -3 5 13 6 14 -8 -9 9 10 -12 -13 -14 18 22 -17 -18 -19 28 21 -22 -23 -24 -25 -26 -27 27 -29 -30 -31
leaf_value=-5006.6988482191719 55759.797514204547 167052.73395040762 2504.900212890625 -1074.4581571790347 86148.398529411759 21692.309983915442 89843.605742187501 64468.475712316183 73650.788187500002 67615.792755681832 90048.575223214284 55753.173760190228 46035.993915264429 906.90712222602417 13254.49433139535 29720.056654575892 -2777.6904857793133 13887.13164453125 4630.3203976717868 11677.81820746528 62743.336187499997 6382.0880986799275 18171.633330078126 16577.530006167766 -4491.1739843233127 171.11846470721935 694.72663188733554 4754.0244650135874 6193.3739139441286 1034.4322723964476
leaf_weight=2741 22 23 25 758 34 34 20 34 25 22 28 23 26 127 43 21 363 25 66 27 25 57 40 38 2775 172 38 69 33 53
leaf_count=2741 22 23 25 758 34 34 20 34 25 22 28 23 26 127 43 21 363 25 66 27 25 57 40 38 2775 172 38 69 33 53
internal_value=0 77605.7 -3007.06 -3745 69662.5 14120.3 75539.5 73816.1 76223.8 72780.6 80178.2 65074.8 54688.1 189.517 18684.2 21415.1 -4625.73 8125.98 1906.53 6804.61 59474.4 8084.29 15624.2 18992.8 -4747.35 1229.15 2006.86 3312.4 3715.84 3028.79
internal_weight=0 282 7505 7195 259 310 186 166 132 98 50 48 73 1316 176 93 5879 134 558 109 47 84 83 72 5516 406 234 107 152 119
internal_count=7787 282 7505 7195 259 310 186 166 132 98 50 48 73 1316 176 93 5879 134 558 109 47 84 83 72 5516 406 234 107 152 119
is_linear=0
shrinkage=0.05


Tree=27
num_leaves=31
num_cat=0
split_feature=0 0 1 0 0 2 5 4 5 2 5 5 5 1 2 2 4 4 0 0 2 4 4 4 5 4 5 1 5 5
split_gain=6.38129e+14 6.86118e+13 4.15138e+13 1.05424e+13 4.37791e+12 2.93036e+12 1.8997e+12 2.40192e+12 1.66158e+12 1.21638e+12 1.18215e+12 2.38991e+12 2.07224e+12 1.07963e+12 1.0384e+12 2.31225e+11 2.50669e+11 2.45822e+11 2.25616e+11 2.12863e+11 2.05499e+11 1.77332e+11 1.60313e+11 1.5322e+11 1.3509e+11 1.08408e+11 9.98758e+10 9.45364e+10 8.60556e+10 8.51364e+10
threshold=4262700.0000000009 8590060.0000000019 947115.00000000012 240858.00000000003 5100615.0000000009 2579983.5000000005 22.500000000000004 2.5833333333333335 16.500000000000004 520084.50000000006 12.500000000000002 6.5000000000000009 15.500000000000002 1455421.5000000002 117155.00000000001 740975.00000000012 0.83333333333333337 1.8333333333333337 649991.50000000012 419576.00000000006 32771.000000000007 1.8333333333333337 2.416666666666667 2.8333333333333335 13.500000000000002 1.4166666666666667 9.5000000000000018 30873.500000000004 23.500000000000004 22.500000000000004
decision_type=2 2 2 2 2 2 2 2 2 2 2 2 2 2 2 2 2 2 2 2 2 2 2 2 2 2 2 2 2 2
left_child=2 4 3 14 8 13 7 10 -2 19 11 -6 -12 21 20 17 -17 18 28 -5 -1 -4 26 -18 25 -15 -19 -22 -11 -26
right_child=1 -3 5 9 6 -7 -8 -9 -10 15 12 -13 -14 24 -16 16 23 22 -20 -21 27 -23 -24 -25 29 -27 -28 -29 -30 -31
leaf_value=-4615.2339067271105 47997.076666666668 158700.1004076087 12263.862088443922 -642.16511813705392 74360.646679687503 31136.655535888673 60449.301145833335 61712.741355846782 65450.532062500009 3672.2417647652001 63476.185406494144 94067.524937500013 81929.765315193974 21693.773625578706 -1946.7854136975461 560.77192687988281 8470.8917299804689 1450.852517903646 7307.03279194079 1115.7742744848981 -505.9295572916667 7460.546075994318 3431.6693227407095 3738.6897244966949 15097.382934570312 17391.779162597657 -2455.3991807725697 -3896.5034067103225 296.95941162109375 18363.355405745966
leaf_weight=4677 30 23 46 574 40 32 30 31 25 69 32 25 29 27 437 20 50 30 38 246 21 33 37 26 56 32 36 978 26 31
leaf_count=4677 30 23 46 574 40 32 30 31 25 69 32 25 29 27 437 20 50 30 38 246 21 33 37 26 56 32 36 978 26 31
internal_value=0 76174.2 -2769.9 -3468.53 68330.8 16979.4 71978 74181 55930.5 919.027 77248.5 81940.2 72249.2 14965.9 -4295.37 3472.42 5541.31 2630.83 4050.92 -114.783 -4476.19 10257.4 797.116 6851.98 17513.6 19360.5 -679.83 -3825.23 2748.48 16261.1
internal_weight=0 265 7522 7265 242 257 187 157 55 1152 126 65 61 225 6113 332 96 236 133 820 5676 79 103 76 146 59 66 999 95 87
internal_count=7787 265 7522 7265 242 257 187 157 55 1152 126 65 61 225 6113 332 96 236 133 820 5676 79 103 76 146 59 66 999 95 87
is_linear=0
shrinkage=0.05


Tree=28
num_leaves=31
num_cat=0
split_feature=0 0 1 2 0 1 5 4 5 0 5 4 2 1 5 1 1 4 4 4 0 4 5 2 4 4 5 5 5 0
split_gain=5.75911e+14 6.19221e+13 3.74662e+13 9.51948e+12 3.95106e+12 2.65447e+12 1.71448e+12 2.16774e+12 1.49958e+12 1.43087e+12 1.06689e+12 2.17531e+12 2.0673e+12 8.56187e+11 6.32185e+11 4.06099e+11 3.5016e+11 3.1185e+11 2.48029e+11 2.28887e+11 1.88714e+11 1.60042e+11 1.10438e+11 1.09917e+11 1.78105e+11 1.37248e+11 1.19454e+11 2.37829e+11 1.10529e+11 1.02226e+11
threshold=4262700.0000000009 8590060.0000000019 947115.00000000012 167971.50000000003 5100615.0000000009 2365272.0000000005 22.500000000000004 2.5833333333333335 16.500000000000004 520351.00000000006 12.500000000000002 1.4166666666666667 6593593.5000000009 1455421.5000000002 16.500000000000004 60160.000000000007 335917.50000000006 0.41666666666666669 1.8333333333333337 2.166666666666667 761015.50000000012 1.8333333333333337 14.500000000000002 740975.00000000012 1.8333333333333337 2.416666666666667 16.500000000000004 8.5000000000000018 23.500000000000004 120835.00000000001
decision_type=2 2 2 2 2 2 2 2 2 2 2 2 2 2 2 2 2 2 2 2 2 2 2 2 2 2 2 2 2 2
left_child=2 4 3 15 8 13 7 10 -2 16 11 -6 -12 21 -7 -1 -5 -15 22 -20 23 -4 -19 24 28 26 27 -26 -11 -17
right_child=1 -3 5 9 6 14 -8 -9 -10 20 12 -13 -14 17 -16 29 -18 18 19 -21 -22 -23 -24 -25 25 -27 -28 -29 -30 -31
leaf_value=-4334.0685713499442 45597.222526041674 150765.09422554349 11650.668980076003 -1333.9876335372992 67651.977559267238 34061.187143554693 57426.835989583335 58627.104511088721 62178.005281250007 4238.4660326191024 75797.824884354442 86052.804513888899 56805.378991168487 11117.036564127606 21778.588494318185 -3352.5467614235531 474.25708013940533 22615.832244318182 12014.198162184091 18194.028761340727 5532.0822362335639 7087.5187063506155 17951.825755208334 5375.3751045227054 1382.9237748579546 3139.853981846401 2427.1820166015627 -6056.0939848400303 870.3615310668946 -1857.1136831832262
leaf_weight=5181 30 23 46 579 29 20 30 31 25 102 38 36 23 24 22 526 498 22 29 31 71 33 30 32 22 35 20 21 32 146
leaf_count=5181 30 23 46 579 29 20 30 31 25 102 38 36 23 24 22 526 498 22 29 31 71 33 30 32 22 35 20 21 32 146
internal_value=0 72365.5 -2631.4 -3295.1 64914.3 16130.4 68379.1 70471.9 53133.9 389.838 73386.1 77843.2 68636.7 13884.5 27627.4 -4184.07 -497.863 16289.3 17397.6 15207.1 3243.73 9744.54 19925.1 2628.3 2249.4 629.438 -765.238 -2250.08 3434.14 -3027.65
internal_weight=0 265 7522 7265 242 257 187 157 55 1412 126 65 61 215 42 5853 1077 136 112 60 335 79 52 264 232 98 63 43 134 672
internal_count=7787 265 7522 7265 242 257 187 157 55 1412 126 65 61 215 42 5853 1077 136 112 60 335 79 52 264 232 98 63 43 134 672
is_linear=0
shrinkage=0.05


Tree=29
num_leaves=31
num_cat=0
split_feature=1 0 0 2 0 0 5 5 5 5 4 4 0 4 0 1 1 5 2 5 2 4 4 4 4 0 0 5 2 1
split_gain=5.20046e+14 5.88419e+13 2.77708e+13 7.33839e+12 6.5257e+12 2.47142e+12 1.62325e+12 1.95479e+12 2.82504e+12 1.8616e+12 1.32705e+12 1.11552e+12 8.50875e+11 5.12101e+11 5.93956e+11 3.96041e+11 2.56342e+11 1.98681e+11 1.95121e+11 1.76216e+11 1.76561e+11 1.72212e+11 1.27668e+11 1.10338e+11 1.1312e+11 1.45427e+11 9.61594e+10 9.21821e+10 8.80946e+10 8.02962e+10
threshold=2859597.0000000005 8590060.0000000019 761015.50000000012 175172.00000000003 5100615.0000000009 1373809.5000000002 12.500000000000002 15.500000000000002 22.500000000000004 6.5000000000000009 1.4166666666666667 1.8333333333333337 395371.00000000006 1.8333333333333337 1875754.0000000002 60160.000000000007 1101028.5000000002 15.500000000000002 599987.50000000012 14.500000000000002 846202.50000000012 2.166666666666667 1.1666666666666667 1.8333333333333337 1.0000000180025095e-35 480655.00000000006 120835.00000000001 14.500000000000002 8801.0000000000018 258835.00000000003
decision_type=2 2 2 2 2 2 2 2 2 2 2 2 2 2 2 2 2 2 2 2 2 2 2 2 2 2 2 2 2 2
left_child=2 4 3 15 11 16 9 -8 -9 10 -6 17 29 14 22 28 19 -2 23 20 -4 -15 27 24 -14 -26 -17 -7 -1 -5
right_child=1 -3 5 12 6 13 7 8 -10 -11 -12 -13 18 21 -16 26 -18 -19 -20 -21 -22 -23 -24 -25 25 -27 -28 -29 -30 -31
leaf_value=-4341.1210576266294 48784.142908653848 143226.84279891304 10384.062161959135 -1575.333584495779 54858.209375000006 17262.013818359377 51989.277949218755 75202.539294763512 54555.494973958332 80544.092857142852 71246.30213541667 38798.487620192311 338.03934533762379 10916.87374636628 25915.182010323664 -3182.9662015795484 10193.210830543156 55322.977938988101 3173.6849032753394 3290.6867937170946 4135.2940625000001 15474.892421875002 19639.481510416666 112.09867496490479 1153.4308189295516 4295.2833149343305 -1818.4140402643307 13003.17756076389 -3927.3880887256873 -518.53586308202443
leaf_weight=2379 26 23 26 293 21 24 40 37 30 28 30 26 86 43 21 527 42 21 152 46 20 40 21 172 79 69 171 27 2802 465
leaf_count=2379 26 23 26 293 21 24 40 37 30 28 30 26 86 43 21 527 42 21 152 46 20 40 21 172 79 69 171 27 2802 465
internal_value=0 66583.4 -2579.92 -3211.24 59777.2 12073 64749.3 60735.8 65957.6 70185.4 64498.3 47108.6 163.796 15968.4 18516.4 -3966.74 6956.55 51705.8 1645.61 5478.95 7667.21 13113.5 16358.4 1073.52 1780.2 2618.21 -2848.67 15007.3 -4117.37 -927.034
internal_weight=0 282 7505 7195 259 310 186 107 67 79 51 73 1316 176 93 5879 134 47 558 92 46 83 72 406 234 148 698 51 5181 758
internal_count=7787 282 7505 7195 259 310 186 107 67 79 51 73 1316 176 93 5879 134 47 558 92 46 83 72 406 234 148 698 51 5181 758
is_linear=0
shrinkage=0.05


Tree=30
num_leaves=31
num_cat=0
split_feature=0 2 1 1 0 1 5 1 4 4 1 2 2 1 4 2 0 5 0 0 0 4 4 0 2 5 5 4 0 4
split_gain=4.58874e+14 6.9389e+13 2.85462e+13 7.54385e+12 3.49219e+12 1.81806e+12 1.57593e+12 1.48678e+12 1.26618e+12 9.08184e+11 1.46488e+12 8.4807e+11 6.13925e+11 5.31614e+11 3.70722e+11 5.5527e+11 2.89615e+11 2.93728e+11 1.98948e+11 1.53715e+11 1.52445e+11 1.06365e+11 2.36389e+11 2.05634e+11 1.45834e+11 1.43201e+11 1.09879e+11 1.04437e+11 9.45795e+10 7.79799e+10
threshold=4262700.0000000009 9217845.0000000019 947115.00000000012 242014.50000000003 5100615.0000000009 7485000.0000000009 15.500000000000002 1455421.5000000002 2.8333333333333335 1.8333333333333337 1819350.0000000002 562126.50000000012 96684.500000000015 5791617.0000000009 0.83333333333333337 6593593.5000000009 1875754.0000000002 16.500000000000004 1155039.5000000002 358476.00000000006 19188.500000000004 1.0000000180025095e-35 1.8333333333333337 649991.50000000012 740975.00000000012 10.500000000000002 16.500000000000004 2.8333333333333335 264774.50000000006 1.8333333333333337
decision_type=2 2 2 2 2 2 2 2 2 2 2 2 2 2 2 2 2 2 2 2 2 2 2 2 2 2 2 2 2 2
left_child=2 4 3 12 6 8 -2 18 13 10 -9 19 20 -6 -15 -16 -11 -18 -4 -5 -1 25 23 -23 26 -13 -24 -26 -14 -21
right_child=1 -3 7 11 5 -7 -8 9 -10 16 -12 21 28 14 15 -17 17 -19 -20 29 -22 22 24 -25 27 -27 -28 -29 -30 -31
leaf_value=-3985.8569629404615 53310.009422348492 146721.96640624999 5704.6583916558156 -765.15594523230266 66340.592140151522 73940.386820652173 36033.661931818184 15716.178987926138 48571.003250000002 16759.838900669645 29765.335791015626 -939.41086713005518 -2274.1125142234705 64500.506182065226 62258.574407762091 53390.779916158543 14401.449986530171 7082.6791898287265 10691.492506510418 1180.9929934188845 -3345.5302267520442 2893.1792806935864 -815.59204861111118 7527.3558950918705 6106.241922200521 3684.2291355942239 3318.6820571289063 1934.1803118896487 757.06693454318577 -166.88124076660642
leaf_weight=4311 33 24 36 387 33 23 22 55 25 35 28 34 549 23 31 41 29 26 45 250 1185 43 45 54 30 33 25 30 27 188
leaf_count=4311 33 24 36 387 33 23 22 55 25 35 28 34 549 23 31 41 29 26 45 250 1185 43 45 54 30 33 25 30 27 188
internal_value=0 65803.9 -2407.94 -2989.82 57396.8 60833.5 46399.5 14065.7 58863.2 16683.3 20455.7 782.628 -3685.03 60873.4 58974.2 57208.9 13204.3 10941.7 8475.12 -39.0797 -3847.8 3088.44 3605.12 5473.03 2211.37 1337.9 660.934 4020.21 -2132.03 602.453
internal_weight=0 255 7445 7191 231 176 55 254 153 173 83 1119 6072 128 95 72 90 55 81 825 5496 294 227 97 130 67 70 60 576 438
internal_count=7700 255 7445 7191 231 176 55 254 153 173 83 1119 6072 128 95 72 90 55 81 825 5496 294 227 97 130 67 70 60 576 438
is_linear=0
shrinkage=0.05


Tree=31
num_leaves=31
num_cat=0
split_feature=0 2 1 1 0 1 1 4 1 3 3 4 4 1 0 2 2 3 3 0 3 3 3 0 4 3 3 2 4 0
split_gain=4.14134e+14 6.26236e+13 2.5763e+13 6.80833e+12 3.1517e+12 1.6408e+12 1.34182e+12 1.14273e+12 9.32689e+11 9.18389e+11 1.14516e+12 1.6126e+12 8.19636e+11 1.32206e+12 8.08735e+11 7.65383e+11 5.55676e+11 2.66234e+11 2.06397e+11 1.79551e+11 1.62977e+11 3.44896e+11 1.51595e+11 1.49039e+11 1.1613e+11 9.80968e+10 2.07286e+11 2.38275e+11 1.6433e+11 2.8192e+11
threshold=4262700.0000000009 9217845.0000000019 947115.00000000012 242014.50000000003 5100615.0000000009 7485000.0000000009 1455421.5000000002 2.8333333333333335 4998240.0000000009 365.50000000000006 635.00000000000011 1.1666666666666667 1.8333333333333337 1819350.0000000002 5806593.0000000009 562126.50000000012 102823.00000000001 692.50000000000011 580.00000000000011 1155039.5000000002 162.50000000000003 320.50000000000006 627.50000000000011 18565.000000000004 0.58333333333333337 499.50000000000006 548.00000000000011 599987.50000000012 2.5833333333333335 718374.50000000012
decision_type=2 2 2 2 2 2 2 2 2 2 2 2 2 2 2 2 2 2 2 2 2 2 2 2 2 2 2 2 2 2
left_child=2 4 3 16 8 7 19 9 -2 -6 14 -12 13 -8 -11 18 23 -14 -5 -4 24 -22 -20 -1 -17 -23 -27 -28 29 -29
right_child=1 -3 6 15 5 -7 12 -9 -10 10 11 -13 17 -15 -16 20 -18 -19 22 -21 21 25 -24 -25 -26 26 27 28 -30 -31
leaf_value=-3788.6924355518927 49808.535647681456 139385.86702473959 5419.4254692925351 -850.34072144334755 64733.443839285712 70243.367391304346 14930.370181995739 46142.453269531252 36679.488736979169 42238.89216308594 51514.486647727274 70658.668607954547 15874.702088758682 28277.069063895091 55308.333997844828 2014.335512907609 -1944.3967818398514 10323.657206895616 3661.2861181640628 10156.91788099501 -4009.1478173828127 4420.1259034998284 426.83971285820007 -3171.1758968437643 6293.9856947356584 -1570.9671370442709 -1199.5513946533204 3120.1665866427957 589.34795898437494 10304.464083584873
leaf_weight=4282 31 24 36 401 35 23 55 25 24 20 22 22 36 28 29 23 524 54 40 45 20 68 384 1266 51 30 24 36 20 22
leaf_count=4282 31 24 36 401 35 23 55 25 24 20 22 22 36 28 29 23 524 54 40 45 20 68 384 1266 51 30 24 36 20 22
internal_value=0 62513.7 -2287.54 -2840.33 54527 57791.8 13362.4 55920 44079.5 57829.7 55231.5 61086.6 15849.1 19432.9 49973.9 743.497 -3500.78 12544.1 -37.1257 8051.37 2934.02 2251.27 731.976 -3647.78 4963.82 2877.31 2082.52 3157.08 4497.58 5845.24
internal_weight=0 255 7445 7191 231 176 254 153 55 128 93 44 173 83 49 1119 6072 90 825 81 294 220 424 5548 74 200 132 102 78 58
internal_count=7700 255 7445 7191 231 176 254 153 55 128 93 44 173 83 49 1119 6072 90 825 81 294 220 424 5548 74 200 132 102 78 58
is_linear=0
shrinkage=0.05


Tree=32
num_leaves=31
num_cat=0
split_feature=0 1 1 0 0 1 5 1 5 4 4 0 4 1 0 5 0 0 5 0 3 3 1 3 3 3 3 4 3 3
split_gain=3.73756e+14 5.43649e+13 2.32511e+13 6.15267e+12 2.8345e+12 1.51544e+12 1.42746e+12 1.21099e+12 1.14115e+12 1.14109e+12 9.1145e+11 8.20607e+11 7.39722e+11 1.19316e+12 6.62841e+11 5.49114e+11 4.90145e+11 2.61378e+11 2.56818e+11 1.62044e+11 1.36663e+11 5.18772e+11 1.13385e+11 9.69623e+10 1.09459e+11 9.69424e+10 2.53687e+11 1.10557e+11 9.25094e+10 2.59026e+11
threshold=4262700.0000000009 8622900.0000000019 947115.00000000012 240858.00000000003 5100615.0000000009 7485000.0000000009 15.500000000000002 1455421.5000000002 15.500000000000002 2.166666666666667 1.1666666666666667 6019884.0000000009 1.8333333333333337 1819350.0000000002 510065.00000000006 22.500000000000004 64557.500000000007 1875754.0000000002 16.500000000000004 1155039.5000000002 162.50000000000003 320.50000000000006 360305.00000000006 499.50000000000006 627.50000000000011 1035.5000000000002 976.00000000000011 2.8333333333333335 548.00000000000011 493.50000000000006
decision_type=2 2 2 2 2 2 2 2 2 2 2 2 2 2 2 2 2 2 2 2 2 2 2 2 2 2 2 2 2 2
left_child=2 4 3 16 6 8 -2 19 9 10 -6 -12 13 -9 23 -10 -1 -14 -19 -4 -16 -22 -18 -5 -25 26 27 28 29 -23
right_child=1 -3 7 14 5 -7 -8 12 15 -11 11 -13 17 -15 20 -17 22 18 -20 -21 21 25 -24 24 -26 -27 -28 -29 -30 -31
leaf_value=-3511.4561912350182 48452.469430634475 129412.99373291017 5148.4542453342019 -719.76523582356776 46978.949951171875 67158.653941761368 32010.10026633523 14183.851613769533 63178.273242187504 39923.414120205969 64809.877269345248 50831.944549851192 15294.643113839287 26863.215565708706 4263.8839947128299 52772.976522972473 -2325.8341780940646 13002.491780458649 6158.9869443453281 9649.07199517144 -4075.1300643920899 4563.7963616265188 1159.2220906575521 2759.2152787642044 106.1853012450441 4755.067027481743 -2735.2218304177991 563.9021019345239 4983.06706258138 -1058.9406412760416
leaf_weight=5197 33 25 36 375 36 22 22 55 32 22 21 21 35 28 80 21 847 29 26 45 32 54 24 44 334 46 23 42 60 33
leaf_count=5197 33 25 36 375 36 22 22 55 32 22 21 21 35 28 80 21 847 29 26 45 32 54 24 44 334 46 23 42 60 33
internal_value=0 59388 -2173.16 -2698.31 51776.6 54888.4 41875.5 12694.3 53124 49980.4 52816.9 57820.9 15056.6 18461.2 701.386 59055.4 -3327.49 11916.9 9767.38 7648.8 2434.32 1929.61 -2229.81 -150.12 415.004 2674.38 2222.91 2826.29 3472.68 2431.03
internal_weight=0 255 7445 7191 230 175 55 254 153 100 78 42 173 83 1123 53 6068 90 55 81 370 290 871 753 378 258 212 189 147 87
internal_count=7700 255 7445 7191 230 175 55 254 153 100 78 42 173 83 1123 53 6068 90 55 81 370 290 871 753 378 258 212 189 147 87
is_linear=0
shrinkage=0.05


Tree=33
num_leaves=31
num_cat=0
split_feature=0 2 1 1 0 1 5 1 5 4 2 4 1 4 1 5 0 5 0 2 0 0 4 4 0 5 2 4 4 4
split_gain=3.37315e+14 5.12283e+13 2.09841e+13 5.55309e+12 2.55859e+12 1.30424e+12 1.28828e+12 1.09292e+12 1.02989e+12 1.02983e+12 9.1342e+11 2.96126e+12 8.49756e+11 6.67599e+11 1.07682e+12 4.95575e+11 2.35893e+11 2.31778e+11 2.20749e+11 1.78406e+11 1.46245e+11 1.21491e+11 9.32685e+10 2.0526e+11 1.61462e+11 1.32426e+11 1.1593e+11 1.13258e+11 8.51703e+10 6.21097e+10
threshold=4262700.0000000009 9217845.0000000019 947115.00000000012 168615.50000000003 5100615.0000000009 7485000.0000000009 15.500000000000002 1455421.5000000002 15.500000000000002 2.166666666666667 6593593.5000000009 1.1666666666666667 432373.00000000006 1.8333333333333337 1819350.0000000002 22.500000000000004 1875754.0000000002 16.500000000000004 19188.500000000004 562126.50000000012 1155039.5000000002 308464.00000000006 1.0000000180025095e-35 1.8333333333333337 649991.50000000012 10.500000000000002 740975.00000000012 2.166666666666667 2.8333333333333335 1.8333333333333337
decision_type=2 2 2 2 2 2 2 2 2 2 2 2 2 2 2 2 2 2 2 2 2 2 2 2 2 2 2 2 2 2
left_child=2 4 3 18 6 8 -2 20 9 10 11 -6 21 14 -9 -10 -15 -18 -1 -14 -4 -5 25 24 -24 -21 27 -25 -28 -23
right_child=1 -3 7 12 5 -7 -8 13 15 -11 -12 -13 19 16 -16 -17 17 -19 -20 22 -22 29 23 26 -26 -27 28 -29 -30 -31
leaf_value=-3421.7644876280569 46029.846394116954 125945.91888020834 4891.0315361870662 -1242.7495045099504 43466.797202620975 63237.931283967395 30409.59556107955 13474.65908647017 60019.359277343756 37927.24303089489 41808.973828125003 66860.721419270834 847.83475802636917 14529.911088169643 25520.054619489398 50134.327371651787 12352.367145512022 5851.0375215970562 -2717.8896661527306 -1158.2516737994026 9166.6183007812506 525.70080423131242 2584.2216610863097 -1263.1764086914063 6717.7386727792245 3288.0296431107959 5357.5176831817625 2800.9147623697918 1589.8859480794272 -787.43856713710693
leaf_weight=4311 33 24 36 468 31 23 22 55 32 22 23 24 248 35 28 21 29 26 1502 34 45 213 42 40 54 33 30 30 30 156
leaf_count=4311 33 24 36 468 31 23 22 55 32 22 23 24 248 35 28 21 29 26 1502 34 45 213 42 40 54 33 30 30 30 156
internal_value=0 56418.6 -2064.5 -2563.39 49195 52136.6 39781.7 12059.6 50467.8 47481.3 50176.1 53675.1 290.372 14303.8 17538.2 56102.6 11321 9279.01 -3239.89 1834.76 7266.36 -707.853 2670.11 3155.83 4909.32 1031.71 1860.94 478.577 3473.7 -29.4475
internal_weight=0 255 7445 7191 231 176 55 254 153 100 78 55 1378 173 83 53 90 55 5813 541 81 837 293 226 96 67 130 70 60 369
internal_count=7700 255 7445 7191 231 176 55 254 153 100 78 55 1378 173 83 53 90 55 5813 541 81 837 293 226 96 67 130 70 60 369
is_linear=0
shrinkage=0.05


Tree=34
num_leaves=31
num_cat=0
split_feature=0 2 1 0 0 1 5 1 5 0 3 2 1 5 2 3 3 3 3 0 0 0 0 3 3 2 2 3 3 3
split_gain=3.04426e+14 4.62336e+13 1.89381e+13 5.02761e+12 2.30913e+12 1.17708e+12 1.16267e+12 9.86362e+11 9.29476e+11 5.67507e+11 7.00887e+11 5.45533e+11 5.39287e+11 4.47257e+11 4.07364e+11 1.85848e+11 1.84392e+11 1.36867e+11 5.28738e+11 1.31986e+11 1.28852e+11 1.02596e+11 9.73135e+10 8.32769e+10 1.62618e+11 2.01415e+11 7.97069e+10 7.87995e+10 9.53376e+10 1.60911e+11
threshold=4262700.0000000009 9217845.0000000019 947115.00000000012 240858.00000000003 5100615.0000000009 7485000.0000000009 15.500000000000002 1455421.5000000002 15.500000000000002 6950364.5000000009 652.50000000000011 510065.00000000006 2365272.0000000005 22.500000000000004 117155.00000000001 411.00000000000006 644.00000000000011 162.50000000000003 320.50000000000006 1155039.5000000002 18190.000000000004 429243.50000000006 1875754.0000000002 493.50000000000006 548.00000000000011 767463.00000000012 662433.00000000012 826.00000000000011 1035.5000000000002 1006.0000000000001
decision_type=2 2 2 2 2 2 2 2 2 2 2 2 2 2 2 2 2 2 2 2 2 2 2 2 2 2 2 2 2 2
left_child=2 4 3 14 6 8 -2 19 9 10 15 21 16 -10 20 -6 22 26 -19 -4 -1 -5 -9 -20 -25 27 -13 -26 29 -29
right_child=1 -3 7 11 5 -7 -8 12 13 -11 -12 17 -14 -15 -16 -17 -18 18 23 -21 -22 -23 -24 24 25 -27 -28 28 -30 -31
leaf_value=-3254.6595947552651 43728.353485662286 119648.62477213543 4646.4799562242297 -463.77970516962415 40376.497308593753 60076.033967391311 28889.115585049716 15847.06800265842 57018.392309570314 38014.896829501071 53102.925937500004 2523.4253082275391 18850.397856702304 47627.610412016373 -1540.5952349604395 46604.309300696332 10527.873825620994 -5101.2143329326927 3866.661741218014 8708.2874522569455 -2697.7148051032855 886.17661040606981 11564.216585286458 -1411.1192718505861 4565.2680919828872 6822.0714535920524 5607.3328179931641 1649.9035072470613 3263.3481342516448 -3521.7777204241074
leaf_weight=4253 33 24 36 569 25 23 22 36 32 22 30 44 38 21 441 23 78 26 69 45 1374 187 21 32 21 23 40 53 38 21
leaf_count=4253 33 24 36 569 25 23 22 36 32 22 30 44 38 21 441 23 78 26 69 45 1374 187 21 32 21 23 40 53 38 21
internal_value=0 53597.7 -1961.28 -2435.22 46735.2 49529.8 37792.7 11456.6 47944.4 45107.3 47107.7 637.964 13588.6 53297.5 -3003.98 43360.7 12107.5 2219.64 1693.59 6903.04 -3118.66 -129.862 14269.2 2381 1835.73 2501.75 3991.95 1754.63 1227.63 182.264
internal_weight=0 255 7445 7191 231 176 55 254 153 100 78 1123 173 53 6068 48 135 367 283 81 5627 756 57 257 188 156 84 133 112 74
internal_count=7700 255 7445 7191 231 176 55 254 153 100 78 1123 173 53 6068 48 135 367 283 81 5627 756 57 257 188 156 84 133 112 74
is_linear=0
shrinkage=0.05


Tree=35
num_leaves=31
num_cat=0
split_feature=0 2 2 0 3 0 3 2 3 2 2 0 0 2 3 5 5 4 4 2 2 0 4 2 3 5 4 5 0 4
split_gain=2.71429e+14 2.54952e+13 1.74391e+13 4.36073e+12 2.01502e+12 1.90889e+12 3.79663e+12 2.51297e+12 5.91107e+12 1.12514e+12 1.08934e+12 9.98629e+11 6.84956e+11 5.11803e+11 1.89773e+12 4.27079e+11 4.38637e+11 4.11448e+11 4.84324e+11 4.00078e+11 3.54362e+11 2.01239e+11 1.67988e+11 1.71171e+11 1.56022e+11 2.07658e+11 1.55071e+11 1.34996e+11 1.33386e+11 1.16285e+11
threshold=4262700.0000000009 9217845.0000000019 794816.00000000012 240858.00000000003 365.50000000000006 5615016.5000000009 956.50000000000011 6172978.5000000009 435.50000000000006 6990048.0000000009 2015057.5000000002 6019884.0000000009 1017433.0000000001 4744350.0000000009 533.50000000000011 21.500000000000004 13.500000000000002 0.83333333333333337 1.8333333333333337 117155.00000000001 432373.00000000006 846202.50000000012 1.8333333333333337 740975.00000000012 921.50000000000011 15.500000000000002 1.0000000180025095e-35 5.5000000000000009 1650460.5000000002 2.166666666666667
decision_type=2 2 2 2 2 2 2 2 2 2 2 2 2 2 2 2 2 2 2 2 2 2 2 2 2 2 2 2 2 2
left_child=2 4 3 19 11 13 7 -7 -9 -8 12 -2 21 -6 -15 16 -12 -14 24 -1 -5 -4 26 29 25 -19 -22 -28 -20 -24
right_child=1 -3 10 20 5 6 9 8 -10 -11 15 -13 17 14 -16 -17 -18 18 28 -21 22 -23 23 -25 -26 -27 27 -29 -30 -31
leaf_value=-2971.1617690307066 62414.965092329541 104191.56851562501 6060.0054280598961 -214.10420546667234 42757.585984375008 40551.265012428979 43942.359586588544 41883.631107954548 77098.461177884616 28632.077309544882 13442.290474556588 48064.138339120371 4960.6605382970865 23441.645957880435 42986.210228587966 8799.3833113960609 22235.214121942936 18891.599223188921 5609.6240349663631 -1375.4545511399401 994.77108630189798 463.29612289954878 -1021.4144215225081 3950.5849786931817 10648.864991978238 12166.374446614584 403.93115670340404 4256.5145648231191 10702.376909179688 1462.4617366469051
leaf_weight=5678 22 20 36 598 25 22 24 22 26 24 37 27 37 23 27 23 23 22 36 422 101 29 109 33 28 24 28 121 20 83
leaf_count=5678 22 20 36 598 25 22 24 22 26 24 37 27 37 23 27 23 23 22 36 422 101 29 109 33 28 24 28 121 20 83
internal_value=0 49936.4 -1838.06 -2343.72 45452.5 43153.6 47117.9 54544.7 60958.3 36287.2 9676.42 54507.4 7917.72 36916.3 33995.7 14592.3 16812.9 9612.66 10936.7 -2860.77 595.718 3563.01 1615.24 624.086 13591.6 15382.8 2507.28 3532.54 7428.46 52.3445
internal_weight=0 262 7488 7173 242 193 118 70 48 48 315 49 232 75 50 83 60 167 130 6100 1073 65 475 225 74 46 250 149 56 192
internal_count=7750 262 7488 7173 242 193 118 70 48 48 315 49 232 75 50 83 60 167 130 6100 1073 65 475 225 74 46 250 149 56 192
is_linear=0
shrinkage=0.05


Tree=36
num_leaves=31
num_cat=0
split_feature=1 2 1 0 3 3 0 2 3 2 0 3 2 2 5 0 5 3 5 3 0 0 2 0 3 3 1 0 3 3
split_gain=2.47651e+14 2.38214e+13 1.31234e+13 4.35485e+12 2.98771e+12 1.18418e+12 2.01317e+12 9.58636e+11 6.44755e+11 2.10401e+12 8.654e+11 5.17384e+11 3.94095e+11 3.62562e+11 2.93734e+11 2.69551e+11 1.46306e+11 1.74503e+11 1.3397e+11 1.20962e+11 1.62311e+11 1.08713e+11 1.02666e+11 2.19359e+11 8.64952e+10 1.62334e+11 8.61976e+10 7.75163e+10 7.15614e+10 4.5668e+11
threshold=2859597.0000000005 9217845.0000000019 947115.00000000012 240858.00000000003 1059.5000000000002 365.50000000000006 6501430.0000000009 6172978.5000000009 635.00000000000011 4744350.0000000009 5615016.5000000009 635.00000000000011 510065.00000000006 117155.00000000001 5.5000000000000009 1155039.5000000002 8.5000000000000018 912.50000000000011 14.500000000000002 531.50000000000011 1875754.0000000002 10442.500000000002 846202.50000000012 795752.00000000012 1035.5000000000002 976.00000000000011 286195.00000000006 395371.00000000006 162.50000000000003 320.50000000000006
decision_type=2 2 2 2 2 2 2 2 2 2 2 2 2 2 2 2 2 2 2 2 2 2 2 2 2 2 2 2 2 2
left_child=2 4 3 13 5 7 8 -2 9 -7 -11 -8 27 21 -4 -16 -17 19 -19 -18 -21 -1 23 24 25 28 -15 -5 -14 -30
right_child=1 -3 14 12 -6 6 11 -9 -10 10 -12 -13 22 26 15 16 17 18 -20 20 -22 -23 -24 -25 -26 -27 -28 -29 29 -31
